tree
version=v4
num_class=1
num_tree_per_iteration=1
label_index=0
max_feature_idx=28
objective=binary sigmoid:1
feature_names=TransactionAmt ProductCD card2 card3 card4 card5 card6 P_emaildomain C1 C5 C9 C13 D1 D3 D4 D10 D11 D15 M2 M3 M6 hour day_week is_night amt_log amt_dec card2_freq card4_product_freq C1_C2_ratio
feature_infos=[-0.77167573129609734:5.7878840251096557] [-2.6454946187511554:3.0938835371835545] [-1.676997333312316:1.5096436886380553] [-4.6371812873753697:6.5827116973207254] [-0.65948891200106063:5.8786455684225354] [-2.4132394369395946:0.90342901399938103] [-0.57774599182002495:6.2008055689146513] [-1.1895154778868611:3.6596020856877054] [-0.1003212475223423:27.120267089124916] [-0.21396465159960867:11.414296522576876] [-0.27319415896115878:11.945765506753411] [-0.2324424694571727:19.784950696368174] [-0.59175669060098379:3.614721536407755] [-0.41419598155989867:14.503002998685137] [-0.62828356787747575:3.7493511283258054] [-0.63652462151102263:4.369976886308522] [-0.70823821399187215:3.9035917577296058] [-0.77123074563546046:3.7782557581519716] [-4.0642647767071587:0.24604696173613835] [-2.8834631327233753:0.34680519707408897] [-0.7095388613025192:1.4093660749804084] [-1.8231066808171601:1.2086306446364534] [-1.4332241855230066:1.514280566195259] [-0.56558819751291023:1.7680708409357737] [-4.2723358399361935:2.797431996183247] [-0.87322565237695648:1.4371835315327188] [-1.0148658766555501:1.706403966299652] [-1.6241881248361023:0.95137200797362731] [-1.6769610100574006:34.763041567217542]
tree_sizes=6663 6659 6670 6677 6662 6712 6711 6700 6730 6752 6746 6764 6731 6764 6761 6763 6770 6759 6765 6774 6750 6761 6776 6807 6779 6803 6789 6758 6799 6793 6780 6781 6835 6767 6772 6817 6804 6781 6794 6797 6789 6823 6804 6819 6790 6817 6822 6809 6817 6795 6844 6830 6793 6808 6799 6830 6824 6846 6807 6825 6831 6819 6835 6866 6822 6840 6839 6854 6855 6837 6848 6858 6797 6879 6825 6862 6840 6852 6832 6852 6819 6870 6839 6826 6879 6886 6875 6854 6866 6887 6857 6845 6857 6916 6865 6875 6890 6881 6922 6891 6896 6870 6908 6899 6949 6953 6906 6941 6891 6931 6894 6904 6913 6932 6957 6922 6921 6931 6944 6965 6962 6937 6963 6957 6946 6980 6965 6951 6928 6947 6968 6935 6951 6944 6927 6945 6924 6936 6947 7008 6994 6946 6995 6991 7000 6948 7004 6967 6971 6969 6952 6995 6920 6954 6980 6994 6958 6968 7007 7005 6981 6970 7001 7009 7038 7033 6973 6993 6948 7022 7011 7058 6989 7073 7006 7029 7001 6998 7013 7050 7033 7028 7065 7047 7035 7029 7022 7055 7047 7025 7033 7108 7058 7058 7113 7070 7036 7125 7065 7041

Tree=0
num_leaves=63
num_cat=0
split_feature=27 28 13 26 13 11 14 24 13 26 11 21 24 21 2 21 26 2 8 11 21 26 24 26 24 16 24 21 19 21 13 8 5 24 11 1 8 2 24 21 28 7 12 5 21 21 12 24 28 24 17 17 26 17 7 28 26 26 14 21 5 2
split_gain=16673.4 8265.38 7378.76 3647.23 1710.91 1541.74 1492.28 1335.86 1161.89 1157.4 1091.87 1071.45 852.376 831.215 784.367 738.678 706.504 618.15 602.869 783.029 1233.17 594.92 939.245 891.852 659.484 769.458 997.852 796.087 671.093 1108.19 549.445 575.221 684.572 588.999 517.059 512.131 511.026 506.148 717.9 574.901 505.767 551.762 470.492 691.591 496.684 563.31 445.441 569.695 460.298 411.741 405.154 1363.52 498.555 400.456 539.525 396.24 437.155 872.564 394.576 586.746 392.161 436.003
threshold=-0.7877701784800889 -0.42871342308966226 -0.38186101267208422 -0.64815817220853778 -0.20940784527040754 -0.22901248433622931 -0.23603312656240749 -0.21056107072935509 -0.27407778304603625 -0.97670172641898301 -0.22901248433622931 1.0109086451503484 -0.74557123149273286 -1.3617553486829144 -1.2331665697340577 -1.0000000180025095e-35 -0.64815817220853778 -0.88193359136277438 -0.085795853532669261 -0.22901248433622931 0.48364997985406755 -0.96342723938017716 1.8459082508417117 -0.85059409955032728 1.7897150132332398 -0.61347458443595126 -0.058093705375362591 -1.0981260160347741 1.0000000180025095e-35 1.0000000180025095e-35 -0.31719107489645543 -0.085795853532669261 -0.29492929491652609 0.49358566041237445 -0.20157260336868257 -1.9280723492593166 -0.056745065553323204 0.96363605862451485 0.094395747537947369 0.22002064720592721 1.9406334487010539 0.50767566936423725 -0.58846007757041263 0.57660402065867922 -0.17542335176628324 0.87909397882627804 0.88842256012544574 -0.95309482609035467 1.675052047531673 1.6731758221961632 2.0495574320641246 2.1028301077525025 -1.013206565775699 -0.71529443616266397 1.9624109384366073 -1.1108493561419677 -0.684663011565254 -0.98333896993838599 1.6024536747158515 -0.83449668338663396 -2.34061166064166 1.1807618997994902
decision_type=2 2 2 2 2 2 2 2 2 2 2 2 2 2 2 2 2 2 2 2 2 2 2 2 2 2 2 2 2 2 2 2 2 2 2 2 2 2 2 2 2 2 2 2 2 2 2 2 2 2 2 2 2 2 2 2 2 2 2 2 2 2
left_child=1 3 6 10 7 -5 13 8 12 -9 -1 14 -4 60 36 -14 -8 -18 19 -3 -21 -16 23 -23 25 28 -27 53 -25 -30 -12 32 33 -32 -31 -7 -11 50 -39 -40 -10 -42 43 -15 -45 -46 47 -44 -48 -41 52 -52 -6 -28 -55 -34 57 -57 59 -19 -2 -62
right_child=2 18 4 5 37 35 16 9 40 11 30 -13 15 42 21 -17 17 58 -20 20 -22 22 -24 24 -26 26 27 -29 29 34 31 -33 55 -35 -36 -37 -38 38 39 49 41 -43 46 44 45 -47 48 -49 -50 -51 51 -53 -54 54 -56 56 -58 -59 -60 -61 61 -63
leaf_value=-0.84640446962908555 -0.75018007243283069 -0.68455368198458411 -3.4204069778828043 -1.5468707482648103 -1.4567349816341433 -3.4204069778828043 -3.4204069778828043 -3.4204069778828043 -3.275171615509358 -3.4204069778828043 -1.1788344984397789 -3.4204069778828043 -3.4204069778828039 -3.4204069778828043 -1.0816816523083661 -1.6114527236936349 -3.4204069778828043 -1.3040049319910176 -0.62380908573807403 -3.4204069778828043 -1.1346927617461908 -3.4204069778828043 -3.4204069778828043 -1.0031965070263031 -0.76753530844064022 -1.0591319581821472 -1.103804730582977 -3.1888719154452181 -1.2961372661090209 -3.4204069778828043 -3.4204069778828043 -0.92943681211819973 -0.69065271827733854 -1.7222537881912965 -1.1255131862231633 -2.5947625047394958 -1.1882641907180362 -3.4204069778828043 -1.6369221178346289 -3.4204069778828043 -3.4204069778828043 -1.1255131862231593 -3.4204069778828043 -0.63634578971623412 -3.4204069778828043 -1.3916665582144325 -3.4204069778828043 -1.0624590366442894 -0.75018007243283069 -1.4567349816341446 -0.98879610362642234 -3.4204069778828043 -3.3666861418980276 -3.4204069778828043 -0.65988253999518776 -1.525121570769739 -1.2004048279358721 -3.025228184186874 -1.1882641907180367 -3.4204069778828043 -3.4204069778828043 -1.3040049319910185
leaf_weight=22.494150191545486 1.0325500071048734 15.116725087165834 4.8298252522945431 13.244625270366667 1.4040750265121449 9.6934255063533765 5.1338002681732204 7.8695754110813132 37.967926889657974 6.0457253158092499 15.990050226449965 6.1808253228664389 2.702000141143805 2.3304751217365238 7.0734500885009757 13.717475295066828 2.6682251393795022 2.6055000424385071 95.631500452756882 3.2761751711368552 8.4437501132488233 3.8165751993656079 4.6271752417087546 11.406300127506256 5.1965250372886649 4.67060005664825 3.5705000460147858 11.908100575208687 9.0854751467704684 5.3702252805232993 5.5053252875804848 5.5342750549316397 3.0301000177860216 3.2472250759601593 1.2014250159263626 33.393826276063919 1.2352000176906575 7.5318253934383419 7.7296501696109754 4.4583002328872681 1.8576250970363606 2.4028500318527222 1.0470250546932209 3.9613250195980063 2.0602751076221475 4.077125072479248 1.7225250899791711 47.941200584173203 1.0325500071048734 1.4040750265121458 3.4016250371932966 7.1603003740310669 51.323527634143829 2.4318001270294185 0.99877500534057606 8.7284251749515516 6.2097750902176037 6.9769503176212302 6.1760000884532928 2.6344501376152003 3.8503502011299124 1.3027500212192533
leaf_count=108 4 49 143 153 15 287 152 233 1071 179 128 183 80 69 50 167 79 24 254 97 64 113 137 72 21 32 26 326 83 159 163 31 10 43 9 723 10 223 96 132 55 18 31 11 61 41 51 330 4 15 21 212 1493 72 3 99 51 180 50 78 114 12
internal_value=-1.94002 -1.33522 -2.40993 -1.87778 -2.6984 -2.49046 -1.63517 -2.50234 -2.85575 -2.2603 -1.43369 -2.15266 -2.25264 -1.42186 -2.05302 -1.90914 -2.41614 -2.05007 -0.741343 -1.16017 -1.77364 -1.95213 -2.04791 -1.94146 -1.84037 -1.95046 -2.36805 -2.69136 -1.58662 -2.01165 -1.67292 -1.8743 -2.02947 -2.79039 -3.00086 -2.78051 -3.04173 -3.06112 -2.63727 -2.20331 -3.15924 -2.12612 -1.31514 -1.86761 -1.50927 -2.0727 -1.18244 -1.11286 -2.41966 -2.9501 -3.20259 -2.63727 -3.31583 -1.84514 -2.61671 -1.76249 -1.91069 -2.19153 -1.72979 -2.36805 -2.52894 -2.88536
internal_weight=586.672 256.516 330.155 134.048 240.579 56.3319 89.5761 156.166 63.4777 92.6883 77.7163 84.8187 21.2493 70.3582 78.6379 16.4195 19.218 14.0842 122.468 26.8367 11.7199 71.3569 64.2835 59.6563 55.8397 50.6432 23.5798 18.9092 27.0634 15.6571 55.2221 39.2321 33.6978 8.75255 6.57165 43.0873 7.28093 84.4134 21.1239 13.592 42.2284 4.26048 64.1725 12.4292 10.0987 6.1374 51.7433 48.9882 2.75508 5.86238 63.2895 10.5619 52.7276 7.00108 3.43058 24.9453 21.9152 15.7054 11.416 5.23995 6.18565 5.1531
internal_count=9000 2440 6560 1976 5449 1163 1111 3242 1534 1708 813 1475 390 728 1292 247 383 231 464 210 161 1103 1053 916 803 782 459 427 323 251 705 577 546 206 168 1010 189 2207 466 243 1144 73 598 182 113 102 416 361 55 147 1741 233 1508 101 75 340 330 279 152 102 130 126
is_linear=0
shrinkage=1


Tree=1
num_leaves=63
num_cat=0
split_feature=9 10 12 14 14 25 12 27 0 0 14 5 24 25 11 17 21 17 11 14 17 7 5 19 1 0 0 11 16 16 7 5 20 14 17 0 12 9 16 19 7 0 24 25 12 1 11 11 0 1 10 13 25 0 11 5 25 7 21 0 14 0
split_gain=353.513 286.527 180.836 180.344 150.267 138 106.98 103.661 207.114 516.443 102.588 96.6663 89.433 112.485 97.9418 87.694 86.8762 83.701 79.6457 82.3693 88.1689 76.7668 76.2683 320.902 69.2659 69.3399 66.6708 65.5106 65.347 61.0268 59.4149 63.2776 80.6256 108.143 61.6069 61.4476 58.3644 119.505 56.1325 51.4082 43.2713 64.9144 42.131 87.4368 53.7612 80.3523 49.0083 39.1369 68.7743 38.3184 37.6689 39.7594 103.079 33.8933 34.127 128.7 62.104 33.8644 84.7796 33.151 64.0412 33.0206
threshold=-0.19405324547944344 -0.11409312164716696 -0.36429039149157699 0.1711887056425489 2.1294466340399132 -0.86050568189497623 -0.067595218740176946 1.0000000180025095e-35 -0.55674011021268155 -0.57710083587884919 -0.45760971173275139 0.69765031448856885 1.6731758221961632 1.3203910752890378 0.12770596824187833 2.0761937699083135 -0.83449668338663396 1.213176423756599 -0.1947126331267959 -0.41568981724106469 -0.3317311712063466 2.9322344511515204 -1.8685311147050909 1.0000000180025095e-35 -1.9280723492593166 -0.016597021919698727 -0.45335324058916665 -0.22901248433622931 0.9869778258418217 0.92380207280454119 0.50767566936423725 -0.052836707256746919 1.0000000180025095e-35 -0.62528928969949804 -0.76323984428220359 -0.06291137927444021 0.22250672795008095 0.084706440202869507 2.0469265712450841 1.0000000180025095e-35 1.0000000180025095e-35 -0.62580522031908747 -0.94302438399491162 0.18715734143944723 -0.55549394726470147 2.3764612676917163 -0.18785266288490923 -0.036933317563402152 -0.62308156001099602 0.94161672870803848 -0.11409312164716696 -0.25252113712082669 0.28197893957788539 -0.68370574958575514 -0.22901248433622931 -0.94857928159793004 -0.30660878545216225 -0.4621478433506761 0.61546464617813779 -0.4777387961315453 1.8240302598861955 -0.61406133088375292
decision_type=2 2 2 2 2 2 2 2 2 2 2 2 2 2 2 2 2 2 2 2 2 2 2 2 2 2 2 2 2 2 2 2 2 2 2 2 2 2 2 2 2 2 2 2 2 2 2 2 2 2 2 2 2 2 2 2 2 2 2 2 2 2
left_child=2 5 24 6 7 10 11 8 9 -3 -2 16 14 -14 22 -10 -4 -5 26 50 -21 -18 23 -7 25 27 -8 -1 30 47 31 40 -33 35 -32 -34 59 -38 -22 -30 42 -42 43 46 49 -46 53 48 -19 -44 51 52 -20 -26 -55 56 -56 -27 -59 60 -9 -45
right_child=1 4 3 17 -6 12 18 36 15 -11 -12 -13 13 -15 -16 -17 21 29 19 20 38 -23 -24 -25 28 57 -28 -29 39 -31 34 32 33 -35 -36 -37 37 -39 -40 -41 41 -43 44 61 45 -47 -48 -49 -50 -51 -52 -53 -54 54 55 -57 -58 58 -60 -61 -62 -63
leaf_value=0.20013065520369311 0.33668078523207456 -0.10517321232757626 0.22328271810845535 -0.11865857156321463 -0.1178623927860934 1.3581946406877226 0.21630602965878298 -0.11147224577637482 -0.12189218380710534 2.7845562149630263 -0.11670619251013714 0.5951190225473364 -0.12105898543024536 0.28901210169203084 0.34813948868547578 0.31803934636193809 -0.12792830862443225 0.34758988421807518 -0.12841339530313736 0.79733769521104358 0.24894935941672608 0.25694727576754656 -0.11397805417673207 -0.11315993260576857 0.37195633759552993 0.27501197970060037 -0.11685162647150081 -0.11773464963112366 0.26521092393658496 -0.11726187118925813 0.26600428795576264 0.26638175292512156 0.28331427250219132 -0.12224649967419665 0.35875010485481829 -0.1217706614718263 -0.11570868372925135 0.30134123004873309 0.58103542451004031 -0.11650028211362569 -0.1282060818598367 0.25747776088784924 0.31509339784359353 0.15401564576197657 -0.1265002816072073 0.38683527856342531 0.25196674384201623 0.34062909887761933 -0.11744394515677906 0.18561209920268032 0.3512995013546053 0.27544528174364907 0.30586978594011582 0.43616276048577202 0.62138781670416121 0.38894117864366423 1.1782677930436019 -0.12596991616560635 0.24448399078699637 0.3580138392635005 0.40467975970504722 0.31884062445016065
leaf_weight=15.997952044010164 23.685602705925707 1.7560302019119265 22.557859919965267 22.557020206004381 10.963751215487717 1.876519091427326 23.006764896214012 4.5195690877735597 17.790113206952814 0.95468504354357975 6.3229700215160838 3.8564633652567855 10.127388358116152 19.703550718724728 5.7358260266482821 6.0794743075966826 22.265306040644649 5.7039784267544738 9.8496570102870482 6.0351827517151859 14.389261215925218 6.7546129748225203 71.508818998932838 7.0559787265956384 27.248871244490147 105.466428168118 8.1290682777762395 10.902264270931481 6.9715799726545811 7.4932420328259459 109.58732979372144 601.23301188647747 26.454802010208372 12.550468552857636 206.7294554784894 4.3621155247092238 9.4047111459076387 25.502180509269238 7.8759167194366446 7.1436155065894109 4.6602720990777007 68.628577820956707 260.44349464401603 18.475789021700621 7.1745852604508382 5.3031594157218933 13.619657568633555 11.751107238233089 7.1876425892114648 25.054290503263474 34.24817369133234 46.432250835001469 12.278602100908754 24.26455000042915 3.7589136473834497 10.724619697779422 4.28606291487813 7.9331016167998305 27.917515784502029 90.280486013740301 5.1349909529089928 35.525557540357113
leaf_count=25 70 51 65 394 200 16 71 104 284 3 112 2 162 83 12 15 254 7 98 9 71 6 1496 143 28 181 146 214 34 136 394 1315 115 178 365 61 184 118 11 128 52 138 428 68 76 2 12 32 121 72 58 117 13 9 31 35 14 85 37 224 2 13
internal_value=0.250684 0.153079 0.26683 0.191333 0.240385 0.0500064 0.232121 0.264717 0.0842249 0.912559 0.24115 0.112188 0.000562106 0.149796 -0.0510964 -0.00984364 0.0760792 0.0289985 0.273098 0.307242 0.458314 -0.0383455 -0.0795637 0.195939 0.279275 0.21846 0.129324 0.0713045 0.286167 0.132643 0.288223 0.277697 0.256883 0.1252 0.326618 0.225975 0.300296 0.188978 0.366419 0.0720292 0.304047 0.232953 0.316001 0.361701 0.294851 0.0916722 0.425582 0.208632 0.0883132 0.303731 0.265656 0.222874 0.112563 0.459226 0.514485 0.615736 0.918073 0.246471 0.162509 0.339179 0.163055 0.262448
internal_weight=2243.19 318.403 1924.79 272.372 172.386 146.017 217.679 161.422 26.5803 2.71072 30.0086 55.4342 116.008 29.8309 86.1771 23.8696 51.5778 54.693 162.245 131.109 28.3004 29.0199 80.4413 8.9325 1652.42 168.217 31.1358 26.9002 1484.2 32.136 1470.09 1153.77 644.6 43.3674 316.317 30.8169 134.842 34.9069 22.2652 14.1152 509.168 73.2888 435.88 137.904 297.976 12.4777 83.9027 24.6427 12.8916 285.498 102.809 68.5605 22.1283 70.283 43.0341 18.7696 8.04498 141.317 35.8506 99.935 9.65456 54.0013
internal_count=9000 3279 5721 1611 1185 2094 921 985 353 54 182 327 1912 245 1667 299 325 690 594 377 91 260 1655 159 4110 542 217 239 3568 296 3406 2647 1669 354 759 176 632 302 82 162 978 190 788 210 578 78 129 160 128 500 286 228 111 117 89 80 45 303 122 330 106 81
is_linear=0
shrinkage=0.1


Tree=2
num_leaves=63
num_cat=0
split_feature=12 11 8 16 0 12 16 2 5 17 21 21 5 16 5 12 21 12 16 22 11 21 0 11 28 7 3 0 21 7 22 21 28 8 17 0 8 5 21 22 21 28 5 21 21 8 2 2 8 2 21 22 7 27 7 12 8 11 17 22 21 28
split_gain=185.807 115.211 112.383 107.168 109.74 87.9982 99.4683 84.8226 113.408 89.7484 84.6031 77.2355 88.2271 64.2026 63.9821 67.0481 63.6723 62.7528 70.3401 59.4829 56.8848 56.8652 53.4188 49.2672 47.5116 46.7304 45.5801 76.1648 53.2209 123.815 56.7676 51.4974 49.5424 47.7253 44.7033 43.9655 59.4131 52.6345 67.2991 66.4397 68.0898 43.328 42.2294 56.8178 78.4029 72.9871 69.7865 46.8914 50.0182 38.3504 36.9275 44.0534 34.9384 54.6364 32.8878 32.757 77.2914 31.8987 111.183 107.896 65.5257 38.4811
threshold=-0.51593459089784821 2.2714466688314681 -0.050934907957453993 -0.69770892181899202 -0.27140181310318484 -0.58846007757041263 -0.60645505632069796 -0.53708666714369613 -1.5780200095133559 1.9856302212380716 -1.0981260160347741 0.74727931250220792 -1.8685311147050909 -0.11508808825296066 -2.34061166064166 2.4576103626772956 1.0109086451503484 -0.43022265210299926 2.0469265712450841 1.268655170218737 -0.21529254385245597 -1.2299406823588444 -0.69941684134067084 1.0675218913803544 -0.58534873241572194 -0.94705959970813269 2.4078677960384582 -0.11674764928404477 0.35183531352999736 0.50767566936423725 -1.1875987895464843 1.0109086451503484 -0.27963760295888773 -0.050934907957453993 2.0761937699083135 0.13672260900906244 -0.091606011128538459 0.60081327942465712 -1.7571993476551249 1.0000000180025095e-35 0.088205980881857049 -0.93297762410470375 -2.34061166064166 -0.17542335176628324 -0.96631134971070409 -0.085795853532669261 0.19730956035989641 -0.013430226662873674 -0.074175538340930838 -1.2331665697340577 1.0109086451503484 -1.1875987895464843 -0.94705959970813269 -1.572261509255261 2.9322344511515204 2.4246442323715844 -0.068365380745061613 -0.13983287119170243 -0.47024012799612791 0.77740437826569264 0.35183531352999736 -1.017969392567984
decision_type=2 2 2 2 2 2 2 2 2 2 2 2 2 2 2 2 2 2 2 2 2 2 2 2 2 2 2 2 2 2 2 2 2 2 2 2 2 2 2 2 2 2 2 2 2 2 2 2 2 2 2 2 2 2 2 2 2 2 2 2 2 2
left_child=3 2 7 4 11 6 -5 8 -2 50 17 -1 -13 23 -12 25 49 -9 -19 -14 -17 -15 -7 26 -4 -16 27 28 30 33 -8 32 -31 -30 -11 36 37 38 -29 40 -39 -20 -32 44 46 -45 47 48 -44 -6 -10 -52 53 -37 -24 56 57 58 61 -60 -61 -27
right_child=1 -3 24 5 16 22 13 10 9 34 14 12 19 21 15 20 -18 18 41 -21 -22 -23 54 -25 -26 55 -28 35 29 31 42 -33 -34 -35 -36 52 -38 39 -40 -41 -42 -43 43 45 -46 -47 -48 -49 -50 -51 51 -53 -54 -55 -56 -57 -58 -59 59 60 -62 -63
leaf_value=-0.11317784209245602 0.22131508141228348 -0.12059140460744328 0.46081632525632932 0.7787551505933985 -0.11216557575078852 -0.14184118200449042 -0.11715368156378506 0.20193914167643334 -0.11837100322480221 0.28124942825484311 -0.1327349569497491 0.57202858272803458 -0.11336589755928446 0.17838012521066071 -0.11685942470955413 0.2292260335150263 -0.11940322219691367 -0.12057162300465618 0.38477477253375919 0.2735696705720162 -0.1210814226673467 -0.11236722556653625 0.26153509419701843 0.028619300848420501 0.22632026339134473 0.3009260551573168 0.23635765232286399 0.39203980533521232 -0.057136066343017738 -0.11791468109896237 0.29265263340293507 0.42030684674773994 0.22229823617771494 0.22500938048261754 -0.11083059726870473 0.2631603180924813 0.18908241552918784 0.35774848393402986 -0.12116658000712155 0.28680101044162248 0.71699678116427323 -0.10981284739627931 -0.12040982607581199 -0.12027713235158961 0.29589119447356699 0.19914778606231393 -0.11896943217124932 0.2859322057177493 0.25045742980904001 0.20568548155822719 0.24099535228233676 -0.11997514954839701 0.2143264401434192 -0.13198850785448535 0.39077407839941952 0.37029466348469015 -0.12306043629462682 0.24080177589167651 -0.11544187659936529 0.26681627916595468 -0.11553776590021383 0.18278611054934374
leaf_weight=23.580847414210439 29.901312751695514 14.888409135863183 9.295347183942793 3.0879424065351477 3.8847802653908721 3.2065631486475459 5.8756666611880055 15.818968283012508 41.699049549177289 12.917109653353693 6.5042283069342366 4.0258594229817417 9.4513427652418631 16.602401847019795 4.7240741420537224 7.2912006750702885 6.5463436916470519 25.556987030431628 5.3084243517369032 6.8541852831840506 12.72681745328009 11.309060050174592 402.36669970117509 14.158902132883666 122.60694131068885 43.27604204043746 573.36218212731183 5.2812592908740044 40.8658766169101 5.3217434547841576 37.153227530419827 10.083892380818723 21.872531721368432 7.025906352326273 3.7528321351855984 6.5463964566588402 38.723856162279844 11.310325883328916 4.9502501375973207 26.001478036865592 9.8884631656110269 2.6582292541861525 8.0466972757130844 13.590086605399849 48.86088363267482 15.103045061230658 10.103447338566182 18.714438661932938 6.6352470293641082 166.04382788017392 7.2012741025537252 6.3729804027825576 229.31937003321946 7.5171568281948549 20.703203765675426 10.903243338689206 7.5034075919538727 122.53029213100672 22.323700362816453 20.566961085423831 5.7310284301638594 75.973721487447619
leaf_count=470 106 256 4 32 94 23 80 63 796 20 70 21 179 69 86 15 109 415 2 35 204 248 500 37 261 37 655 4 433 79 43 32 29 7 100 2 48 19 67 53 24 65 109 178 57 25 135 11 2 524 22 109 410 71 11 8 108 416 423 75 106 308
internal_value=0.200868 0.154322 0.16089 0.216887 0.15143 0.225718 0.211927 0.138885 0.0576322 -0.0103982 0.160136 0.00996794 0.152795 0.210473 0.177891 0.183948 0.186629 0.0377698 -0.0396976 0.0492862 0.00651173 0.0605762 0.264778 0.21403 0.242846 0.195277 0.216289 0.196746 0.154768 0.0906308 0.188059 0.227292 0.155721 -0.0157443 0.192982 0.227562 0.284811 0.349356 0.143738 0.393928 0.525325 0.219746 0.199395 0.170773 0.208958 0.0478568 0.111311 0.180978 0.0471971 0.198419 -0.071736 0.0715232 0.204944 0.051948 0.267859 0.200052 0.193821 0.202009 0.173694 0.0462419 0.183491 0.225659
internal_weight=2492.01 638.033 623.144 1853.98 220.387 1633.59 1207.31 491.242 101.845 71.9432 389.397 43.9122 20.3314 1204.22 340.055 333.55 176.475 49.3426 33.5236 16.3055 20.018 27.9115 426.276 1176.31 131.902 313.532 1162.15 588.791 249.253 85.17 164.083 37.2782 27.1943 47.8918 16.6699 339.539 96.1556 57.4318 10.2315 47.2003 21.1988 7.96665 158.207 121.054 92.3607 28.6931 43.4998 33.3964 14.6819 169.929 55.2733 13.5743 243.383 14.0636 423.07 308.808 297.905 290.402 167.871 48.6217 26.298 119.25
internal_count=9000 4075 3819 4925 1432 3493 2959 3554 1153 1047 2401 705 235 2927 1856 1786 727 545 482 214 219 317 534 2610 265 1567 2573 1918 1220 580 640 140 108 440 120 698 215 167 71 96 43 67 560 517 314 203 257 122 111 618 927 131 483 73 511 1481 1473 1365 949 604 181 345
is_linear=0
shrinkage=0.1


Tree=3
num_leaves=63
num_cat=0
split_feature=9 10 28 4 2 17 14 14 0 3 28 13 0 14 2 2 15 4 0 20 21 13 13 19 15 0 4 26 0 13 2 14 14 28 0 26 21 26 0 1 0 28 27 15 0 0 15 26 21 17 15 26 5 0 17 28 17 26 5 28 5 0
split_gain=203.535 149.881 107.597 91.1947 80.3328 77.2022 64.0942 51.2758 48.2349 50.2701 66.1256 45.2325 44.7205 41.6937 40.6951 59.5929 51.1363 55.2719 39.2374 36.1843 107.359 53.8469 53.6203 43.1507 67.4419 77.8104 54.4828 36.1783 36.3061 35.7042 35.6143 28.8268 85.2796 48.5308 37.203 28.5457 132.705 27.1051 44.1682 26.6528 40.432 55.4929 61.8594 26.9502 81.5381 25.0863 24.7418 23.8766 75.4811 23.1343 56.2423 21.822 19.4761 25.0997 117.859 65.5469 51.2487 36.2862 63.1993 65.533 92.1563 27.1794
threshold=-0.19405324547944344 -0.11409312164716696 -0.77976397690479782 1.0000000180025095e-35 -1.2331665697340577 2.3212480780748499 2.1294466340399132 -0.47557538080061706 -0.70864938251865595 2.4078677960384582 -1.1783083432104802 0.22172507323378429 1.9213570469612498 0.081360360303220261 1.1488316290384646 1.1552176831906695 -0.10597615961679685 1.792311518157788 -0.33788278224912976 1.0000000180025095e-35 -0.43905268441442352 0.17861178138336511 -0.12318126156956917 1.0000000180025095e-35 -0.15873788510904027 -0.56849006570660876 1.792311518157788 -0.98333896993838599 -0.74230690861987181 -0.2309644911956171 0.81037075897159117 1.5725108929360754 -0.03841076681588456 0.96270834205454503 -0.55674011021268155 -0.98997621345778886 0.22002064720592721 -0.43410706870779331 -0.56849006570660876 1.0000000180025095e-35 0.13505444289608876 0.34436904743417546 -1.572261509255261 0.45681557896713326 -0.36236236169969416 -0.63522884234274057 0.91994628051015914 -0.98002034817868455 0.87909397882627804 -0.72594897130033942 2.4031370082365586 -0.99993207873689327 0.69765031448856885 -0.23438065751235485 -0.7419307740068527 -0.93297762410470375 -0.73660350643801498 1.4143652514459235 -1.5780200095133559 -0.27963760295888773 0.57660402065867922 0.20178108741503525
decision_type=2 2 2 2 2 2 2 2 2 2 2 2 2 2 2 2 2 2 2 2 2 2 2 2 2 2 2 2 2 2 2 2 2 2 2 2 2 2 2 2 2 2 2 2 2 2 2 2 2 2 2 2 2 2 2 2 2 2 2 2 2 2
left_child=5 2 18 6 -5 8 31 14 27 10 -10 12 19 -13 16 -16 17 -4 -2 22 -21 23 35 -22 25 -25 -27 -1 -29 -17 -15 32 33 -3 -35 36 45 38 -26 40 41 42 -37 47 49 -12 -18 48 -41 -45 -51 -14 53 54 55 -49 -56 58 -58 60 -60 -55
right_child=1 3 7 4 -6 -7 -8 -9 9 -11 11 13 51 30 15 29 46 -19 -20 20 21 -23 -24 24 37 26 -28 28 -30 -31 -32 -33 -34 34 -36 39 -38 -39 -40 43 -42 -43 -44 44 -46 -47 -48 52 -50 50 -52 -53 -54 61 56 -57 57 -59 59 -61 -62 -63
leaf_value=0.1868726444280141 -0.11467686129406739 0.22372932594968498 -0.11843892256756652 0.17619909483236484 -0.12140225372608866 -0.13016621094652076 -0.11614375887967077 -0.11527996562599002 -0.13542576690825706 0.2030086145852936 0.28344694756700778 -0.11323194484958983 0.3307097958169668 -0.1100074707533808 0.46461301847263226 -0.1209409177083656 0.1760345881489232 0.15213434902044243 0.22546972877765109 -0.12609289772316329 0.20075512580806715 0.36707654440144388 -0.11190661988045657 0.21269679524274943 0.22730677961690626 -0.12118673848679649 0.17212089156069646 0.12400834940246107 -0.13943229495288278 0.19243602991567968 0.2090081759007216 0.27408239389649763 -0.11372747578590461 0.18658000520585993 -0.12658985074548731 0.22931947308595665 -0.13117085732772713 0.21016424189583219 -0.12470337865487141 0.11805475392426333 0.18194265025554965 0.172091489195423 -0.11923290984682272 0.26515917109118042 -0.13146668244809376 0.14864301145230593 -0.11148412856195625 0.23754671955129553 0.5306897898391838 -0.13185953515820459 0.22685963549160493 0.21268786566254982 0.29729678966931644 0.230338098156569 0.36183671288078467 -0.11874684216550757 0.23883333838561602 0.24825251952515923 0.185807443491912 0.17557777511862288 -0.12023332736766144 0.17104307461241428
leaf_weight=14.761858779937027 3.8305581454187623 102.29311703145504 39.076220253482461 16.526968436315656 20.103564076125622 7.9493713323026887 6.7210525423288336 36.510639073327184 6.9577705860137931 849.1107049677521 18.785829730331898 10.104932649061086 17.549296900629997 4.5335202887654331 4.673620220273734 6.4798468649387369 16.421651711687449 9.357766315340994 29.574873058125377 14.99049389362335 69.447054075077176 10.951711140573023 6.3528210893273345 14.703518176451324 7.1705827470868826 29.643236981704831 8.0536513216793519 9.7497244179248792 11.288216361775996 8.2831195034086686 15.342274963855742 38.974423764273524 9.4209413137286884 7.6898257341235876 7.486132010817526 6.9447195492684868 16.41456818766892 45.906942481175065 7.0879166498780233 9.3356138058006781 133.79635091125965 30.807105114683509 19.083659719675779 19.54726380482316 10.029330890625713 52.064945209771395 3.6600063834339371 6.9374988526105907 8.4416870325803739 6.4188061878085163 13.698122493922709 146.01468018628657 18.575819663703442 233.1863597407937 16.654202520847321 20.191224036738276 55.580920469015837 56.019273418933153 16.934916339814663 55.207061709836125 23.483473004773259 115.64044457487762
leaf_count=11 82 264 747 63 354 111 136 811 61 824 9 226 13 128 6 98 78 21 113 216 143 7 145 48 20 435 10 29 89 41 70 53 187 25 103 9 157 134 104 31 246 25 306 12 122 120 97 4 15 79 7 182 10 351 11 327 90 133 64 92 268 227
internal_value=0.169759 0.100671 0.027111 0.156177 0.0128696 0.180925 0.186593 -0.0156592 0.182017 0.183868 0.172078 0.173638 0.176353 0.0521581 0.0256953 0.153407 -0.0105343 -0.0661624 0.186466 0.16955 0.131697 0.151723 0.177664 0.138765 0.100521 0.0175805 -0.0585238 0.0668633 -0.0173446 0.0548868 0.136243 0.19886 0.175756 0.198972 0.0320968 0.179573 0.12503 0.172758 0.0523221 0.185003 0.151927 0.0812661 -0.0262345 0.194196 0.123271 0.184386 0.123633 0.199736 0.313998 0.187683 0.112401 0.225351 0.196452 0.193329 0.169214 -0.0276336 0.193067 0.179504 0.154034 0.104745 0.00799481 0.210681
internal_weight=2638.53 367.084 157.868 209.216 36.6305 2271.45 172.585 124.463 2263.5 2227.7 1378.59 1371.63 1341.65 29.9807 87.9522 19.4366 68.5156 48.434 33.4054 1178.09 207.955 192.965 970.132 182.013 112.566 52.4004 37.6969 35.7998 21.0379 14.763 19.8758 165.864 126.89 117.469 15.176 963.779 87.2653 60.1654 14.2585 876.514 190.632 56.8355 26.0284 685.882 49.6935 70.8508 20.0817 636.188 17.7773 39.6642 20.1169 163.564 618.411 599.835 251.009 27.1287 223.88 207.226 151.206 95.6255 40.4184 348.827
internal_count=9000 3279 2094 1185 417 5721 768 1899 5610 5481 4657 4596 4172 424 1088 145 943 768 195 3977 1117 901 2860 894 751 493 445 129 118 139 198 632 579 392 128 2715 286 258 124 2429 586 340 315 1843 220 129 175 1623 46 98 86 195 1577 1567 989 331 658 647 514 424 332 578
is_linear=0
shrinkage=0.1


Tree=4
num_leaves=63
num_cat=0
split_feature=9 10 22 12 14 12 27 2 28 7 22 28 14 14 17 6 28 2 21 12 17 21 7 0 21 8 13 27 28 8 13 13 0 2 28 0 2 22 5 21 0 14 22 28 12 9 3 17 8 2 21 14 22 12 14 2 24 16 10 21 5 0
split_gain=151.889 111.969 84.1011 71.4594 81.466 66.3678 65.5756 65.3301 61.0029 59.9314 57.0419 52.6629 51.9341 47.9098 44.7758 34.667 51.8086 66.3776 70.4895 110.016 71.25 56.0447 50.7126 46.026 110.433 34.4755 40.1112 31.9784 30.2115 66.5637 29.4328 29.3333 29.249 28.4878 27.0689 85.6581 71.5279 29.7502 41.9771 23.7683 44.5955 46.98 22.0514 30.5166 20.4444 61.6629 19.7539 19.6628 34.7353 19.4399 19.1577 45.7792 30.2978 65.132 16.4041 30.54 15.7066 26.8342 15.6184 15.9867 37.8083 16.9017
threshold=-0.19405324547944344 -0.11409312164716696 0.77740437826569264 -0.35769716543043478 0.1711887056425489 -0.28517167875787031 1.0000000180025095e-35 -1.2331665697340577 -0.7542814576199901 -0.4621478433506761 -0.69634799759344013 -1.1108493561419677 -0.46958682444466188 2.1294466340399132 1.213176423756599 1.0000000180025095e-35 -0.3681132505342099 0.19730956035989641 0.088205980881857049 -0.58846007757041263 -0.73660350643801498 1.1427233114744186 0.99258742572169401 -0.61713682259021707 -0.57086735073849371 -0.079985695936800036 0.69597128358839544 -1.4159490818401128 0.7442203692380488 -0.068365380745061613 -0.27407778304603625 -0.20940784527040754 -0.69941684134067084 0.075974531467998471 -1.017969392567984 -0.58693694988680123 -0.22417001368564368 -1.1875987895464843 -2.34061166064166 0.48364997985406755 -0.62298450307351394 -0.62528928969949804 -1.1875987895464843 0.25812878197719996 0.22250672795008095 0.084706440202869507 -0.46233738609310143 -0.34771297391285982 1.8751323350731901 -1.0032686202546721 0.74727931250220792 -0.62528928969949804 0.77740437826569264 -0.54230749514241705 2.105492408616092 0.81037075897159117 0.8182621030781333 1.9135555370552695 -0.24137395149836038 -0.30723801809035339 0.60081327942465712 -0.0041797999805820666
decision_type=2 2 2 2 2 2 2 2 2 2 2 2 2 2 2 2 2 2 2 2 2 2 2 2 2 2 2 2 2 2 2 2 2 2 2 2 2 2 2 2 2 2 2 2 2 2 2 2 2 2 2 2 2 2 2 2 2 2 2 2 2 2
left_child=3 2 8 15 5 -5 7 -3 56 -10 14 -7 30 44 -6 16 17 21 23 -20 -21 22 32 -19 -25 26 39 28 42 -30 -11 49 -1 34 -34 -36 37 38 -37 -13 -41 -42 43 -17 -8 -46 47 48 -29 -32 52 -52 58 -54 55 -47 57 -2 59 61 -61 -39
right_child=1 6 -4 4 10 11 13 -9 9 12 -12 25 -14 -15 -16 27 -18 18 19 20 -22 -23 -24 24 -26 -27 -28 46 29 -31 31 -33 33 -35 35 36 -38 50 -40 40 41 -43 -44 -45 45 54 -48 -49 -50 -51 51 -53 53 -55 -56 -57 -58 -59 -60 60 -62 -63
leaf_value=-0.1364040904833855 -0.1136580543086993 0.15087741004806149 -0.11646372325725998 -0.1293348580918332 -0.11798683824793468 -0.13318411736470812 0.18852962835947085 -0.11946120882499547 -0.11475283371926677 -0.12532531451041778 -0.11785780585213763 0.16211212841728434 -0.11737299193419737 -0.11464231513936968 0.14901773735946211 -0.13227770494988522 0.17361497287823321 0.24024617282757546 -0.12043978947948748 0.19163607072122124 -0.1336527056332269 -0.13091113618513703 -0.12827335384044797 -0.12517555664714872 0.17790983064569632 0.19557444924660192 -0.11247611913577533 -0.1264026991174487 -0.1738162688081509 0.16983051138442107 -0.1060915717227964 -0.11237300205837047 0.21640160472949158 0.23905559560479106 -0.13134680704423687 0.20963042902111845 -0.13160052700264802 0.13776549738176588 -0.12952872934783202 0.20585840787190546 0.17549010553497113 -0.12325790912374146 0.164521889271076 0.16959867537596987 -0.11680339887332075 -0.11226801140798955 0.1892025255503165 0.19022009599534434 0.18167646994737402 0.17607319613186845 0.16874423203818589 -0.13178745529032035 -0.13330815081962297 0.21757847679442943 0.32472535427059346 0.18510316369796243 0.23034670466234647 0.20132464188900237 0.17640625978064942 0.21242874485124294 0.46975989415378039 0.2722169821973105
leaf_weight=3.1894015055149785 4.2726809885352832 17.322603290900588 33.507415223866701 9.0257598273456079 8.229080703109501 6.5404819548130027 132.33899438939989 18.470913615077734 24.219336211681366 4.764961961656808 22.758737619966269 84.648987978696823 12.132920095697044 6.1570384949445716 26.526404846459627 6.1258976086974126 485.19893387705088 28.786049071699381 36.438160602003336 30.823175905272365 8.6157825216650945 6.7915435675531617 6.013623170554637 17.34443255700171 39.174856312572956 109.9675459433347 7.0538307204842559 7.5122334733605403 9.1359787955880183 14.715345248579977 2.5938637144863597 4.3592412788420907 56.554747216403484 47.734124401584268 11.14360738173127 6.8783097267150879 8.4106750059872848 17.867425806820393 7.7734203878790122 14.211646465584634 8.0804353784769756 15.101290279999377 210.72287803329527 7.3865941166877747 9.4265751317143422 4.0651457421481636 782.37017485871911 13.739139556884764 7.1362429112195969 41.616120433434844 24.649426342919472 6.3806302025914183 8.3934878185391426 14.307454096153378 5.8759613037109366 22.957029290497303 21.159168362617493 7.3700442630797625 57.412420650944121 14.662319308146827 9.3507767114788294 19.612762354314327
leaf_count=29 90 63 674 93 143 56 330 354 542 65 441 280 281 136 104 64 619 51 454 37 80 79 80 182 72 96 161 65 53 6 84 129 28 75 143 1 98 48 93 17 15 189 443 3 184 75 809 2 2 186 78 64 102 14 1 42 27 16 175 27 32 18
internal_value=0.147825 0.088518 0.0239214 0.157251 0.112703 0.136983 0.135037 0.0113717 0.0623246 0.0196457 0.00521065 0.14677 0.0693659 0.159517 0.0857989 0.164093 0.150472 0.127476 0.0749519 0.00483288 0.120574 0.153357 0.159383 0.137321 0.0849001 0.154429 0.11938 0.176616 0.1452 0.0382005 0.111847 0.135115 0.164887 0.167975 0.155094 0.138331 0.153687 0.166499 0.0296908 0.132781 0.0663826 -0.0191236 0.156581 0.0327428 0.169182 0.108685 0.186229 0.104284 0.0236831 0.159518 0.17811 0.106947 0.193704 0.087841 0.173296 0.140367 0.179017 0.0857314 0.213915 0.248934 0.312634 0.208122
internal_weight=2717.11 372.61 155.996 2344.5 312.144 254.63 216.614 35.7935 122.488 89.6864 57.5142 245.604 65.4671 180.821 34.7555 2032.35 973.508 488.309 161.182 75.8771 39.439 327.126 320.335 85.3053 56.5193 239.064 129.096 1058.84 248.087 23.8513 53.3342 48.5692 314.321 311.132 263.397 206.843 195.699 187.288 14.6517 122.042 37.3934 23.1817 224.235 13.5125 174.664 42.3247 810.758 28.3876 14.6485 44.21 172.637 31.0301 141.607 22.7009 32.8981 27.0222 32.8019 11.6427 118.906 61.4933 24.0131 37.4802
internal_count=9000 3279 2094 5721 1595 907 1185 417 1420 1287 688 814 745 768 247 4126 2679 2060 876 571 117 1184 1105 305 254 758 662 1447 569 59 464 399 1025 996 921 893 750 652 94 501 221 204 510 67 632 302 878 69 67 270 558 142 416 116 118 117 133 106 300 125 59 66
is_linear=0
shrinkage=0.1


Tree=5
num_leaves=63
num_cat=0
split_feature=9 10 8 12 25 14 21 1 24 25 21 4 13 12 13 21 21 10 3 0 1 7 16 0 21 21 0 27 21 21 0 21 27 13 14 7 20 25 17 0 4 13 7 19 16 19 0 16 20 16 0 25 10 17 5 0 0 0 8 12 5 0
split_gain=117.28 85.5554 59.2162 80.1801 57.7893 49.4123 44.9256 68.2375 43.3272 54.1036 43.8509 42.2006 52.3924 41.4541 60.4356 40.7952 37.8611 54.2397 34.7187 67.0453 42.2737 78.2645 35.1404 30.5395 29.8618 28.8173 65.905 38.2269 54.2272 37.1638 39.096 50.6182 53.0522 66.3033 30.3375 28.6853 24.9175 23.3499 21.529 57.6923 23.4676 39.1846 20.8509 38.8116 21.902 70.4541 53.469 29.371 21.5085 36.5279 19.3595 42.6662 18.0342 68.2048 17.493 16.5218 36.7909 22.447 37.4357 15.832 13.9718 35.4165
threshold=-0.19405324547944344 -0.11409312164716696 -0.074175538340930838 -0.38407006967500368 -0.86050568189497623 2.1294466340399132 0.35183531352999736 2.3764612676917163 1.6731758221961632 1.3203910752890378 0.61546464617813779 1.0000000180025095e-35 1.0000000180025095e-35 0.86864288194201922 -0.40341765859729378 0.87909397882627804 -1.3617553486829144 -0.050452706721570255 -0.46233738609310143 0.43835737252766377 -1.9280723492593166 1.0000000180025095e-35 0.65004047630965911 -0.70864938251865595 -1.6253846813310548 -1.4935700150069846 0.14715622978838863 -1.3027756889075099 -1.7571993476551249 1.0000000180025095e-35 1.9213570469612498 0.48364997985406755 -0.7877701784800889 -0.40341765859729378 -0.60732362063163237 -0.4621478433506761 -1.0000000180025095e-35 0.77574506646948371 1.005412988571927 -0.38089720372947972 1.0000000180025095e-35 3.1534289190622893 -0.94705959970813269 1.0000000180025095e-35 -0.66963080935797847 1.0000000180025095e-35 -0.56849006570660876 -0.60645505632069796 1.0000000180025095e-35 -0.56433788762917758 0.88721537808943174 0.67861074642523855 0.45867061268320353 -0.7419307740068527 -2.34061166064166 -0.016597021919698727 -0.47164240724595063 1.044963231790814 -0.079985695936800036 0.30162544068378766 -1.5053922332154221 -0.61406133088375292
decision_type=2 2 2 2 2 2 2 2 2 2 2 2 2 2 2 2 2 2 2 2 2 2 2 2 2 2 2 2 2 2 2 2 2 2 2 2 2 2 2 2 2 2 2 2 2 2 2 2 2 2 2 2 2 2 2 2 2 2 2 2 2 2
left_child=2 4 3 18 35 11 16 13 10 -10 -6 52 -13 -8 -15 36 17 -5 19 -1 21 55 23 37 -24 26 27 28 -25 -27 31 32 34 -34 50 -2 -12 -22 39 40 41 -18 43 -33 45 -44 -47 -46 54 -50 51 -31 -3 -54 -49 56 -20 -57 -59 -14 -56 -62
right_child=1 5 -4 6 8 -7 7 -9 9 -11 15 12 59 14 -16 -17 38 -19 20 -21 22 -23 24 25 -26 29 -28 -29 -30 30 -32 42 33 -35 -36 -37 -38 -39 -40 -41 -42 -43 44 -45 47 46 -48 48 49 -51 -52 -53 53 -55 60 57 -58 58 -60 -61 61 -63
leaf_value=-0.13090562959539884 -0.11746580701849595 0.16239906272623264 0.16559832081246284 -0.12359931788870666 -0.11410327754069463 -0.11513650128419883 -0.12231034626701998 0.16219795354906053 -0.12289898156253327 0.1548578034191139 0.17687215474087584 -0.12185819128733738 -0.11353181869340477 0.18060518111555976 -0.11525181945648542 -0.11165584351608689 -0.13197357784137667 0.21104175180473167 0.18715224167885611 0.18106089891657859 -0.13194882845753639 -0.1336882135057017 0.14664367058274078 0.11611073877124632 -0.12375277846050503 0.18150913774812141 -0.1490486944316293 0.15359432435361145 -0.14391958269716817 -0.14260692612247325 0.19471933037876221 0.19096575880697617 0.13067720769987232 -0.12599046994093918 0.15122283932424441 0.16150324619830825 -0.11043629617517076 0.11222007321146395 0.16963527366785441 -0.12514040370907353 0.18309167415539385 0.19869354985309653 0.16409864149552236 -0.13867106552233602 0.24160589169920957 0.18240544051029439 -0.12345102758411262 0.040958113876781811 0.19046984772969699 -0.12532829453008462 0.19338009696207256 0.10243290033712299 0.18252070916731675 -0.12106145514300722 0.19627791353212112 0.15168106773463125 -0.12065888941382807 -0.14808488229205247 0.18048732173098164 0.1722764868291943 0.055399163630687975 0.16341968510241933
leaf_weight=13.611016826704146 4.1513939350843421 146.77055044285953 637.16875606030226 14.652730479836466 48.279107065871358 8.6591757088899595 30.754569631069899 22.620503515005112 9.6525469459593278 25.644250459969044 16.336681876331571 14.053729038685562 2.2145052812993553 15.188049431890251 12.659362308681009 11.630918977782128 7.3944916073232871 7.2350517138838759 7.0974522307515135 13.948897272348402 6.7321968767792013 14.604406826198099 7.5307191051542786 26.782638739794493 8.92435992695391 348.76043283566833 9.3109995294362289 115.62372259050608 11.447904195636509 11.607210565358402 122.29871272668242 7.2673447988927364 17.843592373654246 23.085885100066662 83.136812966316938 32.874457739293575 3.7027965784072903 9.3644923754036409 63.99484396353364 10.614703446626661 30.83725862391293 6.9538940694183111 63.235708793625236 7.0240797158330661 40.647672027349472 8.2573941722512263 18.568663870915771 12.578340765088795 7.3658720385283232 7.2855022940784675 6.884779453277587 18.322536680847406 22.087234618142247 11.129602417349814 85.557496655732393 75.128142178058624 8.5737691577523929 7.0624533928930759 6.8122930526733381 15.53054518252611 34.610802816227078 246.69153934530914
leaf_count=112 76 440 344 238 1148 200 460 21 162 83 104 239 52 28 258 318 86 11 6 3 64 163 18 58 151 463 71 292 96 87 89 5 39 335 175 106 97 21 167 171 56 4 97 60 35 40 294 44 6 104 1 35 19 173 53 143 152 49 1 62 116 399
internal_value=0.131335 0.0791852 0.139524 0.129956 0.0215386 0.119005 0.0739622 0.0146686 -0.0133797 0.0789002 -0.0541202 0.128578 0.0223772 -0.042278 0.0461093 0.0373194 0.107953 -0.012983 0.138202 0.02699 0.140265 0.0831715 0.145247 0.147017 -4.98601e-06 0.148669 0.109297 0.124932 0.0382462 0.154155 0.142553 0.133439 0.0842131 -0.0140938 0.117757 0.130225 0.123785 0.0101001 0.13005 0.0846506 0.133933 0.0282831 0.148129 0.0289528 0.151375 0.106491 -0.0293046 0.160673 0.152325 0.0334369 0.0421828 0.00740273 0.14734 0.0808028 0.156916 0.113428 0.0187479 0.130099 0.0132392 0.136609 0.160892 0.150129
internal_weight=2746.38 372.717 2373.66 1736.49 152.272 220.445 222.905 81.2225 115.246 35.2968 79.9495 211.786 31.7988 58.602 27.8474 31.6704 141.683 21.8878 1513.59 27.5599 1486.03 119.279 1366.75 1350.29 16.4551 1334.2 163.165 153.854 38.2305 1171.03 822.27 699.971 160.881 40.9295 119.951 37.0259 20.0395 16.0967 119.795 55.8003 45.1856 14.3484 539.09 14.2914 524.799 90.0618 26.8261 434.737 394.09 14.6514 36.8145 29.9297 179.987 33.2168 379.438 104.674 15.6712 89.0029 13.8747 17.7451 366.86 281.302
internal_count=9000 3279 5721 5377 2094 1185 1500 767 1912 245 1667 985 353 746 286 519 733 249 3877 115 3762 514 3248 3079 169 2994 517 446 154 2477 2014 1925 672 374 298 182 201 85 484 317 146 90 1253 65 1188 431 334 757 722 110 123 122 632 192 612 351 158 193 50 114 568 515
is_linear=0
shrinkage=0.1


Tree=6
num_leaves=63
num_cat=0
split_feature=16 3 13 28 0 0 13 15 12 2 10 11 1 12 21 11 5 12 28 22 22 0 2 0 5 12 21 0 12 0 22 15 15 2 11 12 15 21 2 11 10 21 21 2 7 18 28 15 0 21 18 15 5 11 13 28 0 22 28 28 0 11
split_gain=84.1667 68.3189 58.2135 40.8722 39.3872 35.6411 42.9791 46.7469 57.2083 41.5618 37.3113 34.364 32.8197 32.1698 53.0672 48.2228 31.23 48.3114 41.7287 47.2517 46.3855 95.5729 36.902 65.6738 48.4007 29.0258 43.3843 36.7415 60.0382 28.7049 33.8028 23.7315 39.341 22.1057 32.9797 24.2367 38.1787 17.3357 61.8363 17.3047 25.8986 23.8636 23.2696 16.9936 24.095 37.2347 21.6135 41.6296 72.5991 26.0398 73.7567 16.9706 20.7766 29.4419 16.7593 35.6211 92.3341 18.0414 34.179 31.0464 13.2366 19.5803
threshold=2.7208012703094098 2.4078677960384582 0.67441463766318577 -1.1783083432104802 -0.62580522031908747 0.013642280164569252 -0.2309644911956171 0.064033844747098709 0.30162544068378766 -1.3097992195605197 -0.11409312164716696 -0.22901248433622931 0.94161672870803848 -0.58186685150927031 1.1427233114744186 -0.078093139014722271 -1.9895774085349807 -0.58846007757041263 -0.27963760295888773 -1.1875987895464843 0.28615358631264837 -0.58532034527186494 0.53577043042676953 -0.067594376507951762 0.57660402065867922 -0.51593459089784821 -1.6253846813310548 -0.20533636897083518 1.4422535492613926 -0.71900414453627792 1.268655170218737 -0.3463351313036836 2.0162176879601073 1.2190782247127212 -0.22901248433622931 -0.44340910422528373 2.326925626969985 -1.6253846813310548 -0.2624863385988746 -0.22901248433622931 -0.24137395149836038 -1.7571993476551249 0.48364997985406755 0.9891802752333354 -0.94705959970813269 1.0000000180025095e-35 -0.27963760295888773 -0.61600617270848346 0.13672260900906244 0.48364997985406755 1.0000000180025095e-35 -0.49289547989324872 0.60081327942465712 -0.084953109256608941 -0.40341765859729378 -0.6849831621204715 -0.62298450307351394 1.268655170218737 0.14600753193482388 -0.3188960991913668 -0.56849006570660876 -0.11239299022415568
decision_type=2 2 2 2 2 2 2 2 2 2 2 2 2 2 2 2 2 2 2 2 2 2 2 2 2 2 2 2 2 2 2 2 2 2 2 2 2 2 2 2 2 2 2 2 2 2 2 2 2 2 2 2 2 2 2 2 2 2 2 2 2 2
left_child=1 2 3 -1 -4 6 13 8 11 10 -7 -8 37 14 15 16 -5 18 19 -18 22 -22 24 -24 -21 60 -27 33 -29 30 -3 51 -33 35 -35 36 -28 38 -11 -26 42 -42 -41 46 45 -45 47 49 -49 -39 -51 52 53 -20 55 56 -31 -56 59 -59 61 -15
right_child=-2 29 4 5 -6 9 7 -9 -10 12 -12 -13 -14 25 -16 -17 17 -19 31 20 21 -23 23 -25 39 26 27 28 -30 54 -32 32 -34 34 -36 -37 -38 43 -40 40 41 -43 -44 44 -46 -47 -48 48 -50 50 -52 -53 -54 -55 57 -57 -58 58 -60 -61 -62 -63
leaf_value=-0.13216037516998172 -0.11363540708493691 -0.14126765257876583 0.15581785379128921 0.14705587846237952 -0.11054092303286778 -0.12947783977896832 0.15689761936223712 -0.10834645412472876 0.16287432568784477 0.14514808606252308 0.1472674045832712 -0.10968986574181111 0.17583186899771974 -0.12811681017033735 -0.12325113690419268 -0.15141672086755401 -0.12252040290176047 -0.14953897085557724 -0.1335587094119034 -0.12231193100729253 0.13132902044897618 -0.12242248879310165 -0.11611009518519839 0.16849078336082957 0.055619023702736831 -0.12411450190147488 -0.13887841890184069 -0.13053157231823909 0.14391787343933904 0.13687135734273245 0.15457317829171924 -0.12642168040621601 0.13321764800865496 0.17068282075550645 -0.12701169715194613 0.13760241685528432 0.18137120992203526 0.14558916837826993 -0.13631366468785672 0.1683097460926391 0.16714079946706936 -0.11802854224988889 0.31002135582730939 0.17838067837693092 0.15896722710924424 -0.15366611868477265 0.13499916165912848 0.14568692739276987 -0.13542066873989253 0.15740958380792108 -0.13142915566968053 0.25048872536640598 0.14483750455401653 0.16375422596253308 0.15542924694352184 0.14889722002098102 -0.15800890327442069 -0.14390748337271866 0.1504647216200567 0.13280024480580574 0.16067993061616737 0.14804118412612291
leaf_weight=6.891030950471758 15.538447471335529 7.6881244257092458 7.7201189380139139 96.304806711152196 19.764707317575812 11.64716116897762 6.550696628168228 19.031495977193117 31.363590011373162 24.242558762431145 8.3745248150080425 18.464939847588539 140.13970136269927 4.0199991967529058 11.719423845410345 7.9826411921530953 13.679319562390445 8.724489836022256 6.771225493401289 6.2588649913668624 28.488741409033537 30.987670471891761 17.151442850008607 15.377719966694711 11.682061120867713 8.0961031801998598 8.1962813399732095 15.668691109865906 16.22428909689188 34.075726591050625 7.7610843423753977 9.3302659597247857 15.581997975707052 6.6894979476928702 8.38723326474428 235.58588772080839 6.820140838623046 82.078271212056279 11.512263482436536 31.431137545034275 7.7732517495751248 4.7140858434141082 18.353079060092568 7.1180668026208878 187.03233418799937 6.4258701484650356 200.34498103149235 16.889191921800375 20.146284097805619 22.653287684544921 14.499362921342252 13.062150573357938 110.92426709085703 6.5551586151123029 676.36228792369366 98.875010974705219 15.425617329776285 9.3943876810371894 34.437426373362541 7.1339199952781192 178.54809669405222 7.1056405901908857
leaf_count=68 372 62 21 257 551 207 4 563 115 55 27 493 79 53 165 91 200 60 103 106 118 473 266 22 30 147 68 198 50 44 10 146 40 1 102 578 1 180 114 82 13 117 41 2 300 45 433 42 241 22 196 33 155 1 592 45 83 70 11 5 223 8
internal_value=0.118441 0.119765 0.108714 0.110915 -0.0357243 0.111847 0.0998825 0.0271672 0.0729115 0.128427 -0.0137229 -0.0398802 0.132309 0.105546 0.0868896 0.0922302 0.0965222 0.0828843 0.0887092 0.0563667 0.0705757 -0.000877478 0.108271 0.0184311 0.144704 0.123356 0.104287 0.110501 0.0090837 0.142474 0.00735133 0.125771 0.0359762 0.122676 0.00507442 0.129751 0.00657218 0.122023 0.0545236 0.167302 0.188254 0.0594867 0.220552 0.126354 0.14964 0.0208423 0.113257 0.0853813 -0.0072279 0.114148 0.0446861 0.142062 0.130664 0.0126875 0.144858 0.114229 0.0449807 0.151106 0.0937312 -0.0244754 0.154086 0.0482577
internal_weight=2737.78 2722.24 1831.09 1803.6 27.4848 1796.71 1043.61 75.4107 56.3792 753.104 20.0217 25.0156 733.082 968.196 472.854 461.134 453.152 356.847 348.122 185.897 172.218 59.4764 112.742 32.5292 80.2125 495.342 305.668 297.572 31.893 891.154 15.4492 162.225 24.9123 265.679 15.0767 250.602 15.0164 592.942 35.7548 73.9536 62.2716 12.4873 49.7842 557.188 200.576 13.5439 356.611 156.266 37.0355 119.231 37.1527 137.313 124.251 13.3264 875.704 148.376 49.5013 727.328 50.9657 16.5283 189.674 11.1256
internal_count=9000 8628 7706 7134 572 7066 5123 1175 612 1943 234 497 1709 3948 2519 2354 2263 2006 1946 1468 1268 591 677 288 389 1429 1145 998 248 922 72 478 186 750 103 647 69 1630 169 283 253 130 123 1461 347 47 1114 681 283 398 218 292 259 104 850 172 127 678 86 75 284 61
is_linear=0
shrinkage=0.1


Tree=7
num_leaves=63
num_cat=0
split_feature=16 8 25 0 15 10 10 0 12 26 0 12 2 1 26 25 26 1 7 27 12 16 22 2 24 15 15 8 15 15 2 10 15 28 12 2 25 24 26 22 22 16 0 0 26 0 0 16 20 2 22 0 0 26 25 2 28 16 2 12 28 12
split_gain=69.2389 50.9063 70.7418 55.8985 34.2374 32.1219 52.4596 30.3781 27.9035 52.8506 53.9392 33.4382 30.3348 23.999 36.0007 23.3365 45.6543 23.5804 62.8677 20.7243 42.5674 20.2777 24.615 18.0266 29.6611 27.9236 28.0637 16.5387 20.0671 49.4501 26.583 22.921 27.4493 39.7825 16.334 32.3357 15.6901 17.1898 20.8087 41.4168 50.8392 17.7162 23.9398 42.7782 21.4383 17.3386 32.5543 16.4955 17.9951 29.0526 16.6099 39.0703 19.8819 46.6919 16.6815 19.6282 56.1587 14.9773 33.8311 14.456 28.7295 14.1013
threshold=2.7208012703094098 -0.074175538340930838 1.3238601581477487 -0.26752256863319701 -0.053214434124553407 2.813365964930282 7.3954758395732467 -0.56502937927951258 -0.38407006967500368 -0.88046169538764052 3.2499755302123643 -0.30495135694129699 1.2701666579303621 1.0000000180025095e-35 -0.86220927570928241 1.0613662218377065 -0.64815817220853778 -1.9280723492593166 1.0000000180025095e-35 1.0000000180025095e-35 -0.22583264420759033 0.65004047630965911 1.268655170218737 0.21966074989261444 0.4197794766761776 1.10168111276122 -0.46944582411891833 2.6740290045052069 -0.43427134045742272 0.11679557023934216 -1.3097992195605197 0.14046853805521992 1.1896173219149591 0.053247531913970116 0.22250672795008095 1.1488316290384646 0.97348278941671695 1.9358493627652249 -0.99993207873689327 1.0000000180025095e-35 0.77740437826569264 -0.67665033747323189 -0.36236236169969416 -0.55657935965997685 0.71911399278846622 0.60141302749759862 1.9213570469612498 -0.60645505632069796 1.0000000180025095e-35 -0.23694212199005402 1.268655170218737 -0.70864938251865595 -0.53766538896815186 -0.666410591886896 0.28429166148369756 0.33141669755620462 0.7442203692380488 -0.50116213459189707 0.5804728094922057 -0.35769716543043478 0.13674607154152027 0.22250672795008095
decision_type=2 2 2 2 2 2 2 2 2 2 2 2 2 2 2 2 2 2 2 2 2 2 2 2 2 2 2 2 2 2 2 2 2 2 2 2 2 2 2 2 2 2 2 2 2 2 2 2 2 2 2 2 2 2 2 2 2 2 2 2 2 2
left_child=1 2 8 4 7 27 -7 -4 15 10 -10 -11 13 14 -13 17 -17 18 -1 -9 -21 36 -23 24 25 26 -15 28 -3 -30 -31 32 33 -32 -25 -36 37 38 39 -19 -41 42 43 44 -40 -44 -47 -43 50 -50 51 -49 -52 -54 -53 -56 -57 -51 -59 -34 -61 -28
right_child=-2 5 3 -5 -6 6 -8 19 9 11 -12 12 -14 23 -16 16 -18 21 -20 20 -22 22 -24 34 -26 -27 61 -29 29 30 31 -33 59 -35 35 -37 -38 -39 41 40 -42 47 45 -45 -46 46 -48 48 49 57 52 54 53 -55 55 56 -58 58 -60 60 -62 -63
leaf_value=0.096390038015473592 -0.1124663081162211 0.14777754681290436 -0.11457538089470404 -0.11940573194546843 -0.10920245516384459 -0.11953750280306173 0.15742067427561945 0.13219595819251392 -0.12268230698887804 -0.12123177049410297 0.18667859763041339 0.17004669756708002 -0.12236215968176573 -0.12610235736591349 -0.12733716514590895 0.091954974216513496 -0.12094646105439313 -0.13809106899279894 -0.13119668907247758 -0.11701271159066584 0.13179652153034332 -0.12481946633532692 0.13611325769788671 0.1703005132934694 -0.11862112180177881 -0.12602269832856997 0.037493607497685238 0.066337607960349085 -0.12389156799477137 -0.12222618892661086 0.16937967108080712 0.16550448631290388 0.1454907905348175 -0.13023167433486446 0.12370778104904293 -0.12583745007216851 0.19051741556294244 0.15748288140751862 -0.10922562152733994 0.14921382714839887 -0.14015978300623974 0.16429391300190549 0.11786031342276454 -0.11760034472421539 0.16137439337210857 -0.13972429038201664 0.10990288718844227 -0.12504435695696231 -0.12298173769959281 0.1684080974639427 0.12011957384443002 0.1340098145866461 0.10234226407394982 -0.142493570677835 0.11442984655485243 -0.15022629266460419 0.15326335090883048 0.13115759699641141 -0.12878585573529136 0.16821831849259383 -0.1256370593804057 0.15134056874395463
leaf_weight=110.38760311249644 14.198478611186145 526.95127859525383 7.4813266936689606 21.582665247842669 10.920919734984635 13.155488820746543 14.244012424722312 53.968552958220243 23.308589980937544 7.1676707500591865 7.4334551710635415 6.7237282898277071 6.0767832892015567 4.6310539655387393 10.317010884173213 54.725190575234592 12.344158538617192 9.4859068263322097 13.637084930203853 11.932222079485653 16.227455973625187 7.6003885669633728 6.8950781729072332 68.670598900876939 7.0385438278317443 5.2882018992677322 13.630410858429967 33.759602636098862 8.6798139419406635 4.3814945183694354 7.1716225184500244 80.369948413223028 51.640482133254409 11.600101803429423 48.067809477448463 5.8214656524360171 29.35271105915308 95.252046813257039 3.610529417172077 32.131691103801131 7.4857194982469073 82.908855630084872 139.6349287526682 14.506927793845533 15.481959795579312 7.9395615877583632 15.275736853480339 6.1643086820840827 7.5529678771272293 15.210458060726522 48.787536196410656 632.66013086587191 23.599731363356113 11.626569760963319 85.711418122053146 11.338038321584463 13.190630037337542 14.159385792911054 7.7456349711865178 7.0088047143071872 6.333597294986248 53.91156187094748
leaf_count=353 372 300 170 450 347 247 20 195 402 104 9 2 89 81 118 149 180 92 164 256 72 127 19 132 197 104 119 38 142 69 5 98 60 142 165 79 32 115 76 56 64 91 337 286 43 90 19 66 121 19 81 1138 41 99 107 82 4 24 94 7 110 130
internal_value=0.107782 0.108943 0.100276 0.0266152 0.0579641 0.130762 0.0244431 0.0783371 0.105261 0.0754918 -0.0478786 0.0914713 0.0980949 0.104073 -0.00999905 0.110455 0.0527703 0.113089 0.0713658 0.0959101 0.0263675 0.116935 -0.000701246 0.113461 0.0779259 0.0957852 0.112037 0.13471 0.137988 0.108876 0.120866 0.127355 0.0907474 -0.015767 0.137961 0.0967503 0.118216 0.116586 0.113356 0.049597 0.0945366 0.116062 0.0886992 0.0118457 0.110202 0.104556 0.0245312 0.121657 0.11763 0.0557949 0.120945 0.125674 0.0787832 0.0215333 0.127755 0.0918569 0.0129795 0.0921757 0.0392414 0.121516 0.0287261 0.128366
internal_weight=2706.1 2691.9 1926.6 122.113 100.53 765.296 27.3995 89.6096 1804.49 268.087 30.742 237.345 230.177 224.1 17.0407 1536.4 67.0693 1469.33 124.025 82.1282 28.1597 1345.31 14.4955 207.06 84.4998 77.4612 72.173 737.897 704.137 177.186 168.506 164.125 83.7546 18.7717 122.56 53.8893 1330.81 1301.46 1206.21 49.1033 39.6174 1157.11 196.45 33.5994 19.0925 162.85 23.2153 960.656 877.747 44.6684 833.078 749.065 84.0138 35.2263 742.9 110.24 24.5287 37.1155 21.905 64.9829 13.3424 67.542
internal_count=9000 8628 7390 1490 1040 1238 267 693 5900 1731 411 1320 1216 1127 120 4169 329 3840 517 523 328 3323 146 1007 631 434 330 971 933 633 491 422 324 147 376 244 3177 3145 3030 212 120 2818 851 405 119 446 109 1967 1876 258 1618 1397 221 140 1331 193 86 137 118 177 117 249
is_linear=0
shrinkage=0.1


Tree=8
num_leaves=63
num_cat=0
split_feature=14 8 25 15 14 14 0 14 0 0 0 5 0 13 14 0 5 8 0 6 28 14 28 28 25 14 21 21 0 17 27 28 25 17 0 0 21 0 8 15 4 0 0 8 0 5 0 14 17 27 17 13 5 17 4 21 28 28 21 17 21 7
split_gain=60.6721 50.8429 68.8677 39.0607 34.3348 29.9689 27.76 26.5158 24.418 24.2185 21.4381 28.8594 26.5274 19.759 19.9234 19.4133 18.5023 17.5771 30.3049 28.6356 35.1299 43.5016 23.2471 32.7381 62.9128 42.6662 32.9662 58.0041 47.2012 43.5208 26.3515 24.0032 62.2641 39.2722 23.2023 37.3884 21.5337 18.3823 16.9021 16.6229 33.9251 36.7508 16.3601 16.1834 27.0407 16.1029 34.7072 16.0595 16.6098 15.9978 20.8395 17.9363 25.1636 15.7524 15.6493 31.9755 15.4889 27.9086 14.0868 44.8235 12.3983 30.6786
threshold=2.1474123031077785 -0.050934907957453993 1.3238601581477487 -0.053214434124553407 2.5666112480246457 2.848073396754542 -0.70864938251865595 0.2610170509818775 -0.11439401855010377 -0.56502937927951258 -0.43525212174875427 0.60081327942465712 -0.41091812770441299 0.32950830285983229 0.4406737416605348 -0.74230690861987181 0.57660402065867922 -0.085795853532669261 5.257840924373391 1.0000000180025095e-35 0.7442203692380488 -0.51150671893634847 -1.017969392567984 -0.091097674556673697 0.71445793596537732 -0.47557538080061706 0.088205980881857049 0.48364997985406755 -0.58693694988680123 2.0495574320641246 -1.4159490818401128 0.7442203692380488 -0.43496485122492295 1.9856302212380716 -0.61713682259021707 -0.0041797999805820666 -0.17542335176628324 -0.62897473593373754 2.6740290045052069 -0.22322443848844895 1.0000000180025095e-35 -0.56849006570660876 -0.58693694988680123 -0.079985695936800036 1.9213570469612498 -1.8685311147050909 0.49892696757508931 -0.58935795156376669 -0.48622193070264114 -0.7877701784800889 -0.75791257671336598 -0.2309644911956171 -1.8685311147050909 -0.62473088749242234 3.4268451382636873 0.74727931250220792 -0.27963760295888773 -0.84957930902748646 0.22002064720592721 1.3676671832528935 -0.30723801809035339 1.0000000180025095e-35
decision_type=2 2 2 2 2 2 2 2 2 2 2 2 2 2 2 2 2 2 2 2 2 2 2 2 2 2 2 2 2 2 2 2 2 2 2 2 2 2 2 2 2 2 2 2 2 2 2 2 2 2 2 2 2 2 2 2 2 2 2 2 2 2
left_child=1 2 6 8 -2 -6 15 17 9 -4 11 -11 -12 14 -9 -1 -14 18 19 22 54 -22 -8 24 25 26 34 29 -29 -28 -30 -25 33 -33 37 36 60 -24 49 42 43 -42 53 44 -41 -32 47 -47 -49 -3 -51 -52 -53 -19 -21 -56 57 -16 -58 -60 61 -36
right_child=4 38 3 -5 5 -7 7 13 -10 10 12 -13 16 -15 56 -17 -18 39 -20 20 21 -23 23 31 -26 -27 27 28 30 -31 45 32 -34 -35 35 -37 -38 -39 -40 40 41 -43 -44 -45 -46 46 -48 48 -50 50 51 52 -54 -55 55 -57 58 -59 59 -61 -62 -63
leaf_value=0.073485650852279302 -0.12370721764632556 0.14544412968621942 -0.11243796005072426 -0.11064611622772591 0.10013189390424007 -0.11835887917621749 0.12910764633028135 -0.13441941223327711 -0.12570643589448699 0.1462520542146124 -0.12049627170783116 -0.1156018402010757 -0.12058870865742242 -0.11146305276702867 0.079988104982367511 -0.13222769626484723 0.08656588767212603 -0.029540263781626327 -0.12418820636552293 0.1217442052073702 0.087042854520783003 -0.16567316653007202 0.10305485151688186 0.14155763085348688 -0.1316321746676333 -0.11723497488704027 -0.1263412425303668 -0.12454571401334771 -0.12242499466451716 0.15555086355131853 0.14992416878383133 -0.1466354187538719 0.14658271208004989 0.14259803655004052 0.066543494833550126 0.13581820875775527 -0.12543190757954495 0.23925711331515262 0.060670810874291985 -0.13454209872157327 0.14729694417608935 -0.13875118583818682 0.13572947577549591 0.13084311763605957 0.1524104987645393 0.10843094281337373 -0.14148696456515847 -0.12761806606347662 0.061408789234905274 -0.13867265324938968 0.12563696242261332 0.14661145592718577 -0.10724069449578316 0.10816969104421266 -0.12852862898978865 0.15300778804673065 0.12529700713485944 -0.12671632560267979 -0.12776950837612661 0.14402725273528375 0.13558575540871981 -0.12875415583597996
leaf_weight=9.7331419009715336 17.204973366111517 344.99643742293119 7.6819565128535023 18.466627256013453 26.751553204841912 8.2026639385148865 99.530040846206248 4.8313311878591767 7.710854389704763 42.677988068200648 9.8391527775675041 4.6693996591493478 4.8877277830615631 6.7826341865584245 19.636707332916561 8.6773612350225431 36.577070421539247 11.658535797148941 6.1659022644162169 582.42983620706946 23.188200628384948 9.6444773459807021 19.351938342675567 111.42565818037838 16.05202738661319 11.831375485286115 27.744052676483989 11.563475014641879 5.942312713712453 6.8239474892616263 36.979836329817772 16.61070346552879 34.918395190499723 6.5439164694398633 50.144268509931862 80.892501289024949 7.173462036997079 20.307192923501134 33.248932898044586 6.5336428908631188 7.0282058343291309 12.443959306925533 344.42495741136372 68.598785482347012 6.6025687418878078 89.031796062365174 7.0042968308553091 5.893075053580108 22.011605394072831 3.4605248179286709 101.90916746668518 7.2989893825724712 8.3975155204534513 28.889985995367169 7.537483628839257 8.6793723013252002 53.5326396394521 9.7875706590712053 10.152771891094746 15.079637845046816 15.501593822613357 9.5801481427624804
leaf_count=27 342 81 189 565 157 191 139 78 114 125 206 118 104 197 100 88 227 29 97 1198 37 86 50 172 180 217 360 132 78 4 50 190 42 8 237 143 93 30 38 87 8 117 261 127 3 322 100 83 106 45 234 19 201 31 81 21 130 157 160 42 33 113
internal_value=0.0987262 0.100863 0.0940651 0.0242772 -0.00806289 0.0488589 0.0987477 0.0998978 0.0461246 0.0585851 0.0719027 0.120428 0.0271196 0.0543154 0.0642642 -0.0234725 0.0621472 0.102871 0.0970014 0.0980159 0.113523 0.0128085 0.0842794 0.0770047 0.0627271 0.0700203 0.0753467 0.047866 0.0708355 -0.0706939 0.0843753 0.11439 0.0622641 -0.0648928 0.104187 0.0875241 0.0401132 0.172796 0.129555 0.119175 0.0831122 -0.0355061 0.128656 0.111371 0.00968702 0.0920118 0.0747327 0.0876839 0.021489 0.134469 0.103193 0.11031 0.0108024 0.0685752 0.119046 0.0221516 0.0731366 0.0112308 0.0962628 0.0346643 0.0558994 0.0352166
internal_weight=2658.88 2606.72 2107.41 132.511 52.1592 34.9542 1974.9 1956.49 114.044 106.333 98.6513 47.3474 51.304 119.803 113.021 18.4105 41.4648 1836.68 1350.5 1344.34 631.479 32.8327 712.858 613.328 443.829 427.777 415.946 212.994 178.426 34.568 166.863 169.499 58.073 23.1546 202.951 163.292 82.3995 39.6591 499.312 486.181 101.207 19.4722 384.973 81.735 13.1362 160.921 123.941 116.936 27.9047 466.063 121.066 117.606 15.6965 40.5485 598.647 16.2169 108.189 29.4243 78.765 25.2324 75.226 59.7244
internal_count=9000 8310 7692 1648 690 348 6044 5929 1083 969 780 243 537 864 667 115 331 5065 4402 4305 1423 123 2882 2743 2331 2151 1934 1235 871 364 739 412 240 198 699 619 476 80 618 663 342 125 321 217 90 661 611 511 189 580 499 454 220 60 1300 102 589 257 332 202 383 350
is_linear=0
shrinkage=0.1


Tree=9
num_leaves=63
num_cat=0
split_feature=9 8 10 28 11 14 0 28 7 26 7 27 2 11 11 26 0 11 0 3 27 7 2 2 6 26 7 7 10 17 17 7 11 28 0 0 11 21 27 28 21 17 26 26 11 2 27 2 21 21 21 26 13 26 14 26 26 21 26 5 27 10
split_gain=60.7231 62.7195 44.9404 41.533 39.6016 35.8052 38.231 34.3303 47.2797 30.0818 30.0189 29.5957 36.528 26.69 36.3715 20.0087 19.9334 25.7218 37.1212 29.7317 21.2819 50.7926 38.6974 28.916 20.5906 39.6455 32.6242 26.8862 36.3465 19.7046 30.4731 18.9493 43.3057 18.8542 60.6547 62.833 21.9685 21.2594 30.0541 26.5821 22.7386 18.5424 19.5752 18.4105 18.0798 16.5905 28.1904 41.3545 14.8127 26.5545 22.7185 47.4927 13.3973 13.2707 13.0447 42.9832 21.579 36.4675 13.6306 42.9852 12.474 11.9148
threshold=-0.19405324547944344 -0.074175538340930838 -0.11409312164716696 -0.77976397690479782 -0.057513228289062211 0.45863941072840048 -0.045259148769882566 0.31332038637877407 2.9322344511515204 -0.84395685603092441 -0.4621478433506761 1.0000000180025095e-35 -1.2331665697340577 -0.21529254385245597 0.031666384855464705 0.71911399278846622 1.9213570469612498 -0.22901248433622931 -0.70482169954670548 -0.85372900183831402 -1.4159490818401128 1.0000000180025095e-35 -0.94579413288482594 1.2701666579303621 1.0000000180025095e-35 -0.99993207873689327 -0.94705959970813269 0.99258742572169401 1.0000000180025095e-35 -0.3956583820323995 -0.3317311712063466 0.50767566936423725 -0.15355281167547577 -1.017969392567984 -0.62897473593373754 -0.62580522031908747 -0.18099269264302253 0.48364997985406755 -1.3027756889075099 -0.51634554335571103 0.22002064720592721 -0.73127623886917725 1.4143652514459235 -0.83897892339137214 -0.20843257361056927 0.57408675534000053 -1.6180634471009261 -0.93940807873262078 1.0000000180025095e-35 -1.4935700150069846 0.48364997985406755 -0.90037342594584924 -0.25252113712082669 1.2567307178601037 -0.61331217698758755 -0.58012642613465781 1.6217791114272651 1.0109086451503484 -0.82902305811226773 0.60081327942465712 -1.5629413474843405 0.45867061268320353
decision_type=2 2 2 2 2 2 2 2 2 2 2 2 2 2 2 2 2 2 2 2 2 2 2 2 2 2 2 2 2 2 2 2 2 2 2 2 2 2 2 2 2 2 2 2 2 2 2 2 2 2 2 2 2 2 2 2 2 2 2 2 2 2
left_child=1 5 3 44 -3 16 9 -6 -9 -7 -5 12 -4 15 -15 43 17 52 -19 -20 21 22 -21 45 25 -22 -27 31 -29 48 -31 32 33 -28 -35 -36 37 38 -37 -40 -41 -11 -43 -12 -2 46 -24 -48 49 -26 51 -50 -1 -54 55 -39 57 -57 -56 -60 -47 -13
right_child=2 4 11 10 7 6 -8 8 -10 41 13 61 -14 14 -16 -17 -18 18 19 20 24 -23 23 -25 29 26 27 28 -30 30 -32 -33 -34 34 35 36 -38 54 39 40 -42 42 -44 -45 -46 60 47 -49 50 -51 -52 -53 53 -55 58 56 -58 -59 59 -61 -62 -63
leaf_value=0.025511021595851602 -0.11606161474844068 0.13546337124491062 0.096853286910134631 -0.11312239023781867 0.099357178686149975 -0.12773220984528302 -0.12802273172361217 -0.18810416753509607 0.1386065998087245 -0.13137375873599511 -0.11346455613551532 0.10923279318513034 -0.11687151569961177 -0.1157619362463483 0.13877136145915964 -0.11945986303797884 0.12546671133377341 -0.12647484256919486 -0.12556001381801535 -0.13654513757373843 -0.1226202719761269 -0.12762104699221954 0.12707783813895546 -0.12649297274972818 0.069276663263589278 -0.12576257682553324 0.12633351193833256 -0.12870858243168457 0.1608774463139736 0.1523962231225931 -0.13022869299884121 0.12019668277079965 -0.12240869359979296 -0.14351479399778297 0.43272962378244817 -0.11822318051369581 -0.12397082322128306 -0.13574418965925347 -0.13394806193139497 0.083680647370621419 -0.11762206464800372 0.10087922283332662 -0.11383485276477759 0.10654002216732519 0.12768288382690393 0.16758194641005486 0.16646662519239078 -0.12933301868106492 0.10288198618930162 0.16247432062075901 0.11240567356774707 -0.1402192220323413 0.11741539663024779 0.048866833182302394 0.16673080940825202 -0.13365005572777211 0.20486202656174113 0.12064650539181837 0.12721650056478667 -0.13416200988758173 0.075831990404539043 0.042158806669550401
leaf_weight=18.691569481045008 3.3742958744987837 496.27463726513088 16.422068815678358 27.278090300969779 44.03942527808249 8.2205538442358357 13.542680426500736 11.506682524457576 7.2016609720885745 4.1399665009230366 4.258006918244063 147.14034790825099 15.586928997188805 25.636180109344423 7.1881017815321675 5.557628287933766 150.98711365833879 8.735970785841344 6.9514195732772341 8.679374994710086 9.8798718331381661 15.138057782314716 22.319394081830971 6.2353169471025458 42.860236208885908 7.6332276156172147 74.930884576402605 13.067250080406668 6.4852299690246573 6.9501259829848996 8.4573462763801199 127.83133116085082 10.718445473350583 12.709976064041255 4.9548511281609526 10.052117995917781 5.5223575998097649 8.9999411199241859 6.5572227844968287 107.22499108780178 5.9211732391268006 63.754608445800841 4.5490216873586169 35.647239058278501 31.008808993734419 35.230821017175913 6.999638028442857 14.552983656525623 24.273454621434212 106.63610936328769 123.43393721338362 12.01357360370457 366.97212192043662 30.596867801621556 43.332941475324333 7.5888427011668709 14.33022093772888 21.951600311324 45.460940293036401 7.3025471782311788 25.575234649702907 32.296901935711503
leaf_count=48 70 218 63 771 43 143 228 77 6 52 111 512 354 711 23 123 184 106 66 92 155 193 23 83 97 104 84 172 1 9 113 366 162 123 10 96 77 102 75 377 108 261 107 160 125 31 3 169 38 103 221 107 304 74 58 86 19 45 104 103 95 256
internal_value=0.0909229 0.0969657 0.0522647 0.00830682 0.125999 0.087356 0.0274502 0.0511473 -0.0623389 0.0535525 -0.0227835 0.0813588 -0.00722099 0.00869389 -0.0600224 0.0583072 0.0908948 0.0872794 0.0787837 0.0805438 0.0819598 0.0449564 0.0668012 0.0827138 0.087644 0.075899 0.0795138 0.082443 -0.0326577 0.107632 -0.00273998 0.0868096 0.0757973 0.0814348 0.0702914 0.0796879 0.0735338 0.077447 0.0478552 0.0618017 0.0731461 0.0741238 0.0865793 0.0830649 0.103762 0.0951756 0.048307 -0.0332663 0.113132 0.135755 0.0919569 0.0223983 0.10825 0.11214 0.103223 0.0633275 0.104166 0.0553186 0.125172 0.0910413 0.128992 0.0971601
internal_weight=2599.37 2247.98 351.395 139.948 559.022 1688.95 94.2068 62.7478 18.7083 80.6642 105.565 211.446 32.009 78.2872 32.8243 45.4629 1594.75 1443.76 1027.5 1018.76 1011.81 134.731 119.593 110.913 877.081 552.456 542.576 534.943 19.5525 324.625 15.4075 515.39 387.559 376.841 301.91 289.2 284.245 278.723 129.756 119.703 113.146 72.4436 68.3036 39.9052 34.3831 104.678 43.872 21.5526 309.217 149.496 159.721 36.287 416.261 397.569 148.967 52.8706 43.8707 29.5404 96.0964 52.7635 60.8061 179.437
internal_count=9000 5721 3279 2094 344 5377 791 126 83 563 1899 1185 417 1128 734 394 4586 4402 3976 3870 3804 689 496 404 3115 2427 2272 2168 173 688 122 1995 1629 1467 1383 1260 1250 1173 656 560 485 420 368 271 195 321 195 172 566 200 366 145 426 378 517 252 150 131 265 207 126 768
is_linear=0
shrinkage=0.1


Tree=10
num_leaves=63
num_cat=0
split_feature=9 8 14 11 12 2 12 18 24 28 7 28 19 14 28 12 26 11 24 17 7 11 17 2 12 7 26 26 24 24 24 2 28 8 26 12 27 2 27 8 24 7 25 7 17 27 23 8 24 7 15 4 22 25 2 25 22 26 22 11 2 24
split_gain=52.1498 61.3016 36.1255 35.6712 31.9345 30.5753 38.2071 33.6726 29.0391 28.6631 39.823 27.3064 23.1506 20.9743 37.5847 27.264 25.1993 33.7867 21.371 20.4217 18.5672 16.8725 35.9897 41.497 38.5821 35.8063 23.7282 20.6324 65.4313 28.9407 49.8376 36.6577 22.8103 28.9584 18.7139 33.5813 17.9239 38.1788 17.3178 17.7347 15.9746 21.8914 20.7077 35.3091 38.1002 36.8513 18.4617 36.0435 68.8174 15.7041 23.074 43.1591 15.4055 21.1085 15.7045 15.1261 28.2126 17.09 14.1224 21.0725 13.5133 41.8055
threshold=-0.19405324547944344 -0.074175538340930838 2.1294466340399132 -0.057513228289062211 -0.38407006967500368 0.97002211277672001 -0.054408766617892505 1.0000000180025095e-35 1.9871247476959668 0.31332038637877407 2.9322344511515204 -1.0334007306224862 1.0000000180025095e-35 1.5725108929360754 1.0153695375046545 1.4818129056282461 -0.86884651922868528 0.038526355097351389 -0.92837240253030218 -0.62473088749242234 0.99258742572169401 -0.22901248433622931 0.22230465595277862 1.2254642788649261 -0.58846007757041263 0.99258742572169401 -0.97338310465928157 -0.96342723938017716 -1.4757895496255335 1.0248736971463694 1.8459082508417117 1.3020969286913882 -0.51634554335571103 -0.097416168724407684 -0.99993207873689327 -0.39066329573614589 -1.4886463436532906 0.96363605862451485 -1.5791850579993729 -0.085795853532669261 0.49358566041237445 -0.94705959970813269 -0.59916810653782637 0.50767566936423725 -0.66202176047428651 -0.7877701784800889 1.0000000180025095e-35 -0.091606011128538459 0.3312384588535946 0.50767566936423725 -0.59841893087773557 1.0000000180025095e-35 0.28615358631264837 -0.052209375812451095 1.1616037373428747 1.3238601581477487 0.77740437826569264 1.6217791114272651 1.0000000180025095e-35 -0.21529254385245597 -0.62649142527456825 -1.6846559946691768
decision_type=2 2 2 2 2 2 2 2 2 2 2 2 2 2 2 2 2 2 2 2 2 2 2 2 2 2 2 2 2 2 2 2 2 2 2 2 2 2 2 2 2 2 2 2 2 2 2 2 2 2 2 2 2 2 2 2 2 2 2 2 2 2
left_child=1 4 8 -3 21 6 11 -7 13 -5 -11 -6 -8 14 15 16 17 -2 -16 -14 55 -1 24 -24 25 27 -27 60 -29 31 -31 32 33 -30 35 -26 37 -34 -39 -40 41 -38 43 45 -45 -43 47 48 -44 50 -36 -52 53 -48 -55 -18 57 -57 59 -47 61 -23
right_child=2 3 -4 9 5 7 12 -9 -10 10 -12 -13 19 -15 18 -17 20 -19 -20 -21 -22 22 23 -25 34 26 -28 28 29 30 -32 -33 36 -35 49 -37 40 38 39 -41 -42 42 46 44 -46 58 52 -49 -50 -51 51 -53 -54 54 -56 56 -58 -59 -60 -61 -62 -63
leaf_value=0.1014062422842256 -0.1179521912306037 0.12867157118818645 -0.11044432329912715 0.091910800072991572 0.090084479587160038 0.12504231826533294 -0.12044153748774965 -0.12370181327722213 -0.11950147351295962 -0.17627712621396391 0.12824451595523978 -0.12255926166935199 -0.12387534389035931 0.11693497060479406 0.070718994233046659 -0.11082084019645418 0.10762335641118155 0.086905937863677452 -0.12291471160438559 0.092956397028458496 -0.11576409676055761 0.15094488832211037 -0.12969525225377862 0.098108220623942921 -0.13832603544648478 0.081056134442733255 -0.1245388244803942 -0.14549649446564802 0.13603580910858812 -0.14659177868380543 0.10419589298226631 -0.11902748292189741 -0.13066745236820917 -0.14274314061951832 0.11006694861018392 0.16467996836644111 -0.12721808109051094 0.22031724501491856 -0.1213895353766708 0.14019861287427754 0.1302914323711796 -0.12638152559328078 -0.12944516879424736 -0.12737137917207861 0.17465911210071494 -0.13695714110026358 0.28944503220305717 0.12751160142501691 0.2415346983321256 0.13559258079317946 -0.1405724222297875 0.086547144939556508 0.06574521177074949 0.069552523474846889 0.21299718493513017 0.086142379834074412 -0.11235671778172783 -0.12712357318428474 0.084321375173673635 0.10667628560577032 0.11851050274030978 -0.13498387951881288
leaf_weight=458.82411807309836 15.97405920177698 471.50811941921711 13.818670554086564 42.906609797850251 9.1091776657849568 7.5077992537990239 5.6364238383248439 19.780137243680656 9.3108134958893043 11.073168806731703 7.0148128047585478 17.916849223896861 4.4838772211223832 53.289220964536071 8.1997681781649607 8.916893642395733 118.90479029342532 16.231250992976129 18.695642567239702 138.80560081358999 4.7004921585321418 12.20537042617798 17.520945651456714 14.709939938038586 8.2419437766075117 8.6398532241582888 16.026547035202384 14.986475634388624 5.9992844313383094 16.259211514145139 15.457086363807319 9.4727179445326311 11.553058550693097 9.833742297254501 172.85322320461273 6.5757837295532218 5.0283273765817276 7.3552625142037877 4.7961682099848995 5.6387500762939444 82.874039409682155 15.927021110430351 17.392487205564979 4.8736789338290682 29.202210318297148 8.3612599261105043 12.83750134706497 46.064123565331101 7.0179740749299517 150.48331273719668 11.193451582454143 33.133428601548076 15.522720052860675 16.302921690046787 14.350531671196224 62.487103350460529 9.3321207119151932 3.9979108888655892 33.898843067698181 6.1697185356170001 112.79016288742423 8.8004863364621979
leaf_count=476 422 218 438 43 25 18 109 299 175 77 6 300 59 176 68 258 383 62 355 690 100 2 261 34 64 25 220 151 2 162 34 127 143 85 228 1 75 8 54 1 123 168 170 89 48 144 14 36 12 125 113 82 34 42 18 505 256 81 162 12 235 97
internal_value=0.0841592 0.0898562 0.0479601 0.119363 0.0803475 0.043226 0.0585006 -0.0552642 0.0545924 0.0474017 -0.0581787 -0.0508873 0.0783515 0.0596464 0.0482312 0.0607665 0.067372 -0.0147051 -0.0638804 0.0861712 0.0806269 0.0855537 0.0782092 -0.0257274 0.0817056 0.0653483 -0.0525255 0.0706253 0.0596663 0.0673111 -0.0243692 0.0751599 0.0802554 -0.0371111 0.106324 -0.00385859 0.0856391 0.0108789 0.1028 0.0199657 0.0925851 0.0791707 0.083724 0.0491524 0.131461 0.00557119 0.110004 0.0754516 -0.022789 0.110764 0.0935608 0.0291948 0.151267 0.181791 0.136707 0.0853677 0.050464 0.0733182 0.0489662 -0.0335127 0.104796 0.0311539
internal_weight=2528.77 2184.92 343.859 532.503 1652.41 203.24 175.952 27.2879 330.04 60.9946 18.088 27.026 148.926 320.729 267.44 240.545 231.628 32.2053 26.8954 143.289 199.422 1449.17 990.35 32.2309 958.119 575.638 24.6664 550.971 417.175 402.189 31.7163 370.472 361 15.833 382.481 14.8177 345.167 29.3432 17.7902 10.4349 315.823 232.949 227.921 98.4327 34.0759 64.3568 129.488 70.4746 24.4105 367.663 217.18 44.3269 59.0137 43.491 30.6535 194.722 75.8171 66.485 48.4298 14.531 133.796 21.0059
internal_count=9000 5721 3279 344 5377 1500 1183 317 2841 126 83 325 858 2666 2490 2067 1809 484 423 749 1325 3877 3401 295 3106 2493 245 2248 1914 1763 196 1567 1440 87 613 65 1353 206 63 55 1147 1024 949 623 137 486 326 218 182 548 423 195 108 74 60 1225 842 586 318 156 334 99
is_linear=0
shrinkage=0.1


Tree=11
num_leaves=63
num_cat=0
split_feature=3 25 8 22 28 22 0 19 13 28 0 11 11 26 25 13 13 0 0 26 25 28 25 22 0 1 11 8 28 22 28 26 7 7 0 26 15 0 26 22 8 26 26 12 15 12 4 11 8 15 26 26 20 19 13 11 11 28 7 26 25 15
split_gain=53.6456 33.6117 42.6989 43.6398 27.437 32.5256 37.2458 24.6342 23.2597 29.959 23.4687 28.7663 22.973 25.3344 22.936 21.6757 19.7808 28.4159 37.2206 22.3278 32.1683 16.6356 16.3756 44.3767 19.2957 15.0808 14.8106 25.2782 42.23 25.7335 22.3854 19.5608 32.442 31.8428 17.1191 17.2537 14.983 25.505 23.7802 13.2682 21.2978 32.8108 13.2244 13.2217 45.8282 18.993 13.1666 38.5689 13.336 29.4238 23.1263 15.7167 12.5393 23.0777 12.5376 27.2523 27.7622 20.2393 15.4224 13.5388 39.0242 12.4722
threshold=2.4078677960384582 -0.59916810653782637 -0.056745065553323204 0.77740437826569264 -0.42871342308966226 1.268655170218737 -0.74230690861987181 1.0000000180025095e-35 0.22172507323378429 -0.93297762410470375 -0.016597021919698727 0.36094495646602565 2.7001948089493859 -1.0032507004965947 0.28197893957788539 -0.058511323793940397 -0.40341765859729378 -0.59878092928891424 -0.21483884975619247 -0.86220927570928241 1.2394458085854951 1.1548797131046851 0.18715734143944723 1.0000000180025095e-35 -0.45941929918179819 0.94161672870803848 -0.21529254385245597 -0.085795853532669261 0.7442203692380488 -1.1875987895464843 -0.51634554335571103 1.4143652514459235 0.50767566936423725 3.4171462075089774 -0.16829701520422727 -0.55357745205704612 -0.59841893087773557 -0.53221200229337617 -0.98333896993838599 -0.69634799759344013 -0.091606011128538459 -0.83897892339137214 0.1151248325227992 -0.51593459089784821 -0.53979479144190956 -0.44340910422528373 1.0000000180025095e-35 -0.20157260336868257 -0.079985695936800036 -0.61600617270848346 -0.98665759169808742 -0.18521043673018342 1.0000000180025095e-35 1.0000000180025095e-35 0.2648383650842035 -0.18785266288490923 0.12770596824187833 -0.51634554335571103 0.99258742572169401 1.0000000180025095e-35 0.28429166148369756 -0.33461030341651837
decision_type=2 2 2 2 2 2 2 2 2 2 2 2 2 2 2 2 2 2 2 2 2 2 2 2 2 2 2 2 2 2 2 2 2 2 2 2 2 2 2 2 2 2 2 2 2 2 2 2 2 2 2 2 2 2 2 2 2 2 2 2 2 2
left_child=1 8 3 14 5 16 -7 15 10 -10 11 26 -4 -14 -3 -5 17 19 -19 -2 -21 54 39 -24 -25 46 27 28 29 30 -1 32 34 -34 36 -36 -31 -38 -39 40 41 -18 -37 52 -45 -46 -12 48 49 -48 -51 -52 -28 -54 55 57 -57 -16 59 -59 -61 -56
right_child=4 2 12 7 -6 6 -8 -9 9 -11 25 -13 13 -15 21 -17 22 18 -20 20 -22 -23 23 24 -26 -27 43 -29 -30 31 -32 -33 33 -35 35 42 37 38 -40 -41 -42 -43 -44 44 45 -47 47 -49 -50 50 51 -53 53 -55 61 56 -58 58 -60 60 -62 -63
leaf_value=0.092371966192497434 0.12512999767422525 -0.1225544646393231 0.10547894670748764 -0.12221752256189278 0.11814969569098854 0.14730482913541254 -0.15193552096641683 -0.11785189938232661 0.14450575212623348 -0.11164987637635815 0.094591271896928411 -0.14040661137363658 0.13003737976293381 -0.12491311767762835 -0.12143047520521529 0.1546468911474394 0.091922262834676416 -0.17578464354248535 0.10921831473180069 -0.14752537187002754 0.15142727395336367 -0.11767291775045022 0.098382879602045517 -0.15910418082970701 0.03967579289886243 0.12259257182710326 0.11483247615447217 0.11517833907053131 -0.15218527022004991 0.10020234260714125 -0.1311388175360173 0.10652722460274427 -0.13884684900716282 0.10713674181361557 -0.13943197312691136 0.075691504940933185 0.082123737215527737 0.081192878586587372 -0.12437340049443463 0.13253155950364462 0.14264853838200206 -0.16588512578541817 -0.13496851303333296 -0.12996534930843276 -0.13222962118934284 0.081160965318802278 0.090107104290525042 -0.13764820103650174 0.13501087118300109 0.11114105859367321 -0.15362409733787472 0.014914962038911114 0.10101528971869211 -0.13616370530306807 -0.11104116453633728 -0.1169573111410476 0.11754434164997583 0.094759305933659513 -0.12144069323081808 0.11574683619356774 -0.11608395220929353 0.12417955200632354
leaf_weight=6.589488461613656 33.179501920938492 8.6117774900048953 108.02058387733996 4.5541112180799246 401.07667339034379 6.3380215428769615 12.10098499432206 32.55955845862627 6.7386817373335388 14.160024289973078 330.51139400526881 6.7638439852744332 6.5267151147127178 9.675789497792719 6.0141124045476309 7.4594405982643348 13.621978033334019 11.711880546063187 7.5274677276611319 8.6123850233852846 6.1836447715759268 6.126545049250125 87.611649602651596 10.636783018708231 9.0281340666115266 125.7260084040463 130.82729925308377 53.502543210983276 10.96042072214186 78.157723226584494 14.003389447927475 60.044075291603804 17.528176950290803 7.5204942887648931 7.9897857662290361 15.568860627710821 42.510489042848349 9.0319205988198501 14.929359341971578 135.55457771662623 19.698538875207305 7.7424014471471301 3.685381199233233 11.43314412422478 4.2686120970174661 182.44081770442426 75.161122350953519 9.3892004145309311 26.859711620956659 8.9046901743859035 12.549569874070587 9.8961398256942648 13.428369749337437 5.9070470491424194 2.4386497363448134 19.194209416396919 6.8502630405127993 81.89912267588079 4.1978260297328225 16.851683643646542 12.757996663451193 29.80388913769275
leaf_count=12 18 115 316 93 173 4 92 771 8 462 725 75 12 205 80 31 16 66 6 53 1 167 157 87 24 92 185 38 124 300 186 204 239 27 99 47 127 19 170 158 12 55 60 140 52 756 150 128 7 17 110 44 15 78 61 499 17 429 87 55 277 167
internal_value=0.0781911 0.0681731 0.0412555 0.0165642 0.100038 0.0803803 -0.0490779 -0.0726945 0.0756034 -0.0290538 0.077291 0.0648173 0.0888239 -0.0222136 0.0369936 0.0496928 0.087179 0.0383984 -0.0642762 0.0795734 -0.0225853 0.0443753 0.0987283 0.0679116 -0.0678446 0.0918074 0.066828 0.0520468 0.0403398 0.0479423 -0.0596179 0.056562 0.041327 -0.0649939 0.0568221 -0.0158938 0.0705196 0.0356186 -0.0468876 0.117446 0.067647 -0.00150654 0.0353699 0.0813427 0.0643815 0.0762824 0.0836292 0.0582504 0.0720415 0.0561621 -0.0252194 -0.0793165 0.103723 0.0285562 0.0498906 0.0375627 -0.0552783 0.0574278 0.0667243 0.0738079 0.0158573 0.106389
internal_weight=2451.15 1680.53 363.542 239.319 770.625 369.548 18.439 44.5731 1316.99 20.8987 1296.09 697.091 124.223 16.2025 194.746 12.0136 351.109 67.2149 19.2393 47.9755 14.796 186.134 283.894 107.277 19.6649 598.998 690.327 342.022 288.52 277.559 20.5929 256.966 196.922 25.0487 171.874 27.244 144.629 66.4718 23.9613 176.617 41.0629 21.3644 19.2542 348.305 198.143 186.709 473.272 142.76 133.371 106.512 31.3504 22.4457 150.163 19.3354 180.008 147.765 26.0445 121.721 115.707 111.509 29.6097 32.2425
internal_count=9000 8078 3382 2849 922 749 96 895 4696 470 4226 2953 533 217 1954 124 653 144 72 72 54 1839 509 268 111 1273 2878 1652 1614 1490 198 1292 1088 266 822 206 616 316 189 241 83 71 107 1226 948 808 1181 456 328 321 171 154 278 93 1672 1444 516 928 848 761 332 228
is_linear=0
shrinkage=0.1


Tree=12
num_leaves=63
num_cat=0
split_feature=3 16 28 22 0 0 28 2 9 10 22 28 7 14 4 2 10 0 28 28 28 0 0 22 6 0 2 5 2 2 14 7 2 7 7 2 22 28 2 22 22 5 10 0 0 23 0 22 0 20 22 14 0 2 15 2 17 7 15 15 19 15
split_gain=49.2316 36.0907 27.3483 26.9512 32.2205 31.9413 25.0591 18.927 17.391 29.8991 36.5663 20.8941 28.0795 20.3048 19.8913 26.1072 18.0447 18.6527 17.807 49.2891 41.8708 50.5815 29.7078 27.9836 23.6504 35.6822 28.2749 33.782 21.6599 17.1041 17.4253 16.6385 14.5777 44.6134 48.7909 15.9893 21.4112 26.9067 14.5228 25.3267 49.0819 20.0582 24.41 15.7574 14.652 13.2765 16.3296 22.4577 11.9997 11.6808 10.7238 29.8745 10.3287 28.7475 20.871 10.0017 9.04418 8.73123 24.8321 8.49073 11.4609 15.6071
threshold=2.4078677960384582 2.7208012703094098 -0.42871342308966226 1.268655170218737 -0.74230690861987181 -0.70864938251865595 -1.1783083432104802 -1.6099437647141619 -0.19405324547944344 -0.11409312164716696 0.77740437826569264 -0.7542814576199901 -0.4621478433506761 -0.46958682444466188 1.0000000180025095e-35 -1.2331665697340577 -0.11409312164716696 1.9213570469612498 -0.3681132505342099 0.7442203692380488 1.8713382308004829 -0.16796641501092882 1.0526974564964193 0.77740437826569264 1.0000000180025095e-35 0.4687483260767476 0.81675681312379633 -0.12546448355468068 -1.2331665697340577 -0.53708666714369613 -0.61930073334354285 -0.94705959970813269 0.26755615603415311 1.0000000180025095e-35 0.50767566936423725 1.1616037373428747 1.0000000180025095e-35 -1.3212371753744783 -1.0735152159289287 1.0000000180025095e-35 1.268655170218737 0.60081327942465712 -0.17773353657276367 -0.56849006570660876 -0.59878092928891424 1.0000000180025095e-35 -0.64954170759205454 0.77740437826569264 -0.64531063172369418 1.0000000180025095e-35 -1.1875987895464843 -0.62528928969949804 -0.65407305336075028 -0.94579413288482594 -0.63359341453923124 -1.0032686202546721 -0.76323984428220359 -0.4621478433506761 2.4031370082365586 -0.42840892651384005 1.0000000180025095e-35 2.9483415049897412
decision_type=2 2 2 2 2 2 2 2 2 2 2 2 2 2 2 2 2 2 2 2 2 2 2 2 2 2 2 2 2 2 2 2 2 2 2 2 2 2 2 2 2 2 2 2 2 2 2 2 2 2 2 2 2 2 2 2 2 2 2 2 2 2
left_child=1 6 3 5 -5 -2 -1 -8 16 10 11 -10 -13 55 -11 -16 17 18 22 56 21 23 24 52 25 26 31 -28 -26 30 -18 -9 -7 35 -35 36 37 -34 43 41 44 42 -40 -33 49 46 -37 -48 -4 -41 51 -30 -21 -54 -55 -14 -20 58 -22 -59 -61 -62
right_child=2 -3 48 4 -6 32 7 8 9 14 -12 12 13 -15 15 -17 29 -19 19 20 57 -23 -24 -25 28 -27 27 -29 50 -31 -32 38 33 34 -36 45 -38 -39 39 40 -42 -43 -44 -45 -46 -47 47 -49 -50 -51 -52 -53 53 54 -56 -57 -58 59 -60 60 61 -63
leaf_value=-0.13126565777026852 -0.13112712471922255 -0.11137567187136738 0.05299833523354134 0.13931319289919017 -0.14656528077089606 0.10120336853557554 -0.116745086256366 -0.13310513877858529 0.10217521445693706 0.08237907205734564 -0.11341996764485562 -0.11304196648398657 -0.10857108695835285 -0.11640236607672094 0.079655265112133944 -0.11475869873988694 0.10245426847043655 0.10008530020623847 0.027249871118263647 0.13772982120802735 -0.1601776054268155 -0.1508805678060412 -0.14175698828515496 -0.15010880648303201 -0.13102873610420654 -0.13688586372796685 0.06511167543288815 -0.1234931925059585 0.10671035770831604 0.11255896633833401 -0.13296461811233626 -0.11222979509842644 0.12110484348830884 -0.15224421144420364 0.099091558520392253 0.1518680618713224 0.099252650836290923 -0.17091985489658723 -0.13031922912609517 -0.12071696696595818 0.088136612905746689 0.091427433685290035 0.10754004894900682 0.09455622114036337 -0.13791154356948246 0.17130971601917366 -0.13330523315472304 0.11706081968481528 0.11819586918026066 0.10587393590430004 0.085018082272076884 -0.13886208718613677 0.098118041679558052 0.09998887372068721 -0.14168334067010016 0.071899678968417619 0.10890056389414526 0.12743670589749467 0.14242852432264094 0.1148682808501918 -0.13711468561148496 0.10391400501477176
leaf_weight=6.5245124390348783 6.9814142603427163 11.776531587354837 30.720880340784788 6.0464985854923752 11.329806901514528 208.87157875671983 5.7030556332319966 4.7217219537124029 29.376953809522092 165.69205255713314 21.164359157904983 16.367927005514503 3.2948208628222337 7.5765548683702937 15.153055440634491 12.693247326649724 6.6473299004137516 144.5064170435071 14.364761653356252 11.716416493058203 5.0018523382022959 20.724636496044695 7.9490647921338669 7.6149688018485895 5.0074785966426125 11.747756358236073 17.180106362327933 21.235381852835417 12.585134061053397 143.63498464971781 5.9658901542425138 3.835344490595161 5.0841715633869162 18.069125838577751 13.490316130220888 14.286537099629641 22.725906796753407 8.3158251419663411 9.9396346192806977 3.9358353465795428 26.043648727238178 76.509562827646732 7.6236519161611787 94.031026488170028 23.457750839181251 29.930755317211151 6.6793014109134674 7.727972611784935 348.15695783495903 5.3914911448955536 236.32433841750026 8.1695898910984379 25.909131065011021 5.104927501641213 11.911624354310339 45.178179127164185 243.94638101197779 42.191435623914003 5.9230307452380657 13.400905335322022 5.7057202262803912 5.0768887847661972
leaf_count=70 76 372 39 4 92 244 127 65 121 652 606 510 123 239 60 323 9 207 43 4 59 234 91 80 59 158 71 318 24 198 84 69 2 131 15 13 32 50 165 48 129 280 19 341 333 29 51 10 134 12 709 87 49 9 155 316 337 14 3 14 79 3
internal_value=0.07273 0.0630538 0.0941621 0.0744065 -0.0470871 0.0805764 0.0643188 0.0651079 0.0657515 0.044738 0.00617702 0.0310428 0.00218708 0.035837 0.0692365 -0.00896492 0.070887 0.0665146 0.0616355 0.0773297 0.0337675 -0.0155626 0.050224 0.0294832 0.052912 0.0340124 0.0408434 -0.0391457 0.0749532 0.102754 -0.00889582 0.0528706 0.0849859 0.058168 -0.0448089 0.0924675 0.040137 -0.060121 0.0563723 0.0371193 -0.0143467 0.0693037 -0.0270722 0.0864524 -0.0957569 0.124715 0.0761114 0.000989568 0.112909 0.0102598 0.0789654 0.0100468 0.0545113 0.0317971 -0.0691822 0.0596327 0.10436 0.0867236 0.00388323 0.100359 0.0531172 -0.0236286
internal_weight=2373.95 1635.54 738.417 359.539 17.3763 342.163 1623.76 1617.24 1611.53 316.497 122.959 101.794 72.4175 56.0496 193.538 27.8463 1295.04 1138.79 994.281 418.593 160.282 82.9817 575.689 62.2571 567.739 305.653 293.905 38.4155 262.087 156.248 12.6132 255.49 335.181 126.31 31.5594 94.7505 36.1259 13.4 250.768 152.902 58.8287 94.0728 17.5633 97.8664 32.7851 58.6246 28.6938 14.4073 378.878 9.32733 257.079 20.7547 54.6421 42.9257 17.0166 48.473 258.311 77.2998 10.9249 66.3749 24.1835 10.7826
internal_count=9000 8078 922 749 96 653 7706 7636 7509 2950 1915 1309 1188 678 1035 383 4559 4268 4061 1083 703 531 2978 297 2887 2008 1850 389 879 291 93 1461 577 333 146 187 84 52 1396 986 522 464 184 410 393 103 74 61 173 60 820 111 217 213 164 439 380 172 62 110 96 82
is_linear=0
shrinkage=0.1


Tree=13
num_leaves=63
num_cat=0
split_feature=3 16 8 11 21 8 11 21 21 7 4 5 27 0 7 1 3 0 2 2 26 21 5 27 11 0 17 21 5 26 11 0 0 2 27 21 17 26 26 26 17 0 27 26 21 5 2 17 8 21 26 0 5 12 24 21 2 0 26 0 17 16
split_gain=45.0423 30.8593 22.037 33.6591 31.3531 20.7599 36.0697 57.8643 24.9471 21.4298 20.2049 36.9915 18.8433 18.6912 15.6125 48.3935 29.7181 22.0353 32.0556 40.5263 30.7217 19.2478 18.1891 16.0226 13.2406 17.2882 55.8283 27.6613 31.6161 27.2418 40.3685 22.4294 22.3062 71.1231 27.4892 20.5442 26.4986 16.9428 16.5897 23.1899 16.3677 15.5131 31.4353 13.4338 17.2616 37.8846 11.5438 27.8161 11.4261 25.5109 37.1544 64.8348 15.8843 19.9259 14.2556 12.0367 11.6153 28.5277 11.2245 15.4977 25.3559 11.1001
threshold=2.4078677960384582 2.7208012703094098 -0.062555223149192415 -0.21529254385245597 0.61546464617813779 -0.085795853532669261 -0.20157260336868257 -1.4935700150069846 1.1427233114744186 -0.94705959970813269 1.0000000180025095e-35 -1.5780200095133559 -1.619128608446174 5.257840924373391 0.50767566936423725 1.0000000180025095e-35 -0.46233738609310143 0.082871173852976307 1.1935340081039005 -0.26887239275107971 1.4143652514459235 -0.17542335176628324 0.69765031448856885 -1.5791850579993729 0.031666384855464705 -0.24107152014002739 -0.60342181721707144 -0.83449668338663396 -0.12546448355468068 -0.87382445186823754 -0.22215251409434264 -0.5338498381133866 0.13672260900906244 0.81037075897159117 -1.4886463436532906 1.0000000180025095e-35 -0.48622193070264114 0.0072696253325015029 -0.98333896993838599 -0.98665759169808742 -0.73127623886917725 -0.12275304729074997 -0.7877701784800889 -0.52702847797943442 -0.30723801809035339 0.57660402065867922 0.96363605862451485 -0.70996716859382636 -0.091606011128538459 -1.2299406823588444 -0.84395685603092441 -0.62897473593373754 0.57660402065867922 -0.44340910422528373 -1.5318564234241461 -1.4935700150069846 0.075974531467998471 -0.70482169954670548 0.1151248325227992 -0.1257860765870657 2.0175938266510984 -0.69770892181899202
decision_type=2 2 2 2 2 2 2 2 2 2 2 2 2 2 2 2 2 2 2 2 2 2 2 2 2 2 2 2 2 2 2 2 2 2 2 2 2 2 2 2 2 2 2 2 2 2 2 2 2 2 2 2 2 2 2 2 2 2 2 2 2 2
left_child=1 5 3 48 -5 13 -7 -8 9 -9 61 -12 -13 14 16 -16 -1 18 19 20 -17 -22 23 -18 25 26 29 28 -28 -25 -31 -32 34 35 -27 36 -34 41 39 -29 -33 -36 -43 -35 -45 -46 47 -21 49 55 -51 52 -52 -54 -50 56 -2 -58 -39 60 -60 -11
right_child=2 -3 -4 4 -6 6 7 8 -10 10 11 12 -14 -15 15 17 22 -19 -20 46 21 -23 -24 24 -26 32 27 38 -30 30 31 40 33 43 37 -37 -38 58 -40 -41 -42 42 -44 44 45 -47 -48 -49 54 50 51 -53 53 -55 -56 -57 57 -59 59 -61 -62 -63
leaf_value=-0.12856734823127253 0.099179049564555921 -0.11039580124604612 0.1140552594175375 -0.16008944581833079 0.054226799996425983 0.10681622836753656 -0.12697180488666782 -0.14944691251125691 -0.12632950214861846 -0.011120380403699746 0.076482159397291916 0.083304265309945627 -0.13286964651864164 -0.12690414757179497 -0.13068669058405902 -0.13288626923906338 0.08976904682813934 0.10312501895566639 -0.12884530661322444 -0.12205093123102105 0.16529204963342878 -0.11852142106612801 0.14438817263524362 0.11072531409902149 0.12072237839604381 -0.13776604152448355 0.10306594888758727 -0.12874540684576438 -0.11520698276754 -0.11477374820363517 0.10837534167140228 -0.14515054368346644 -0.15233228537989868 0.10165901783222123 0.080840249356543381 -0.13992588361227851 0.06481442445855172 0.15216421051472062 -0.12170258435653498 0.13378821547852748 0.037834383882201596 0.087472346274424156 -0.12747864320751567 0.079914534163565282 0.092069268480354197 -0.14743073942823595 0.12947895385475414 0.087017313652273054 0.01017161370719899 0.088590288761348626 0.10702442953551228 -0.14525744739951837 -0.15317051302344431 0.1096177178099018 0.1086254552327991 0.13435592087127957 0.14226283259764513 -0.14042658228574365 -0.13835071381592953 0.10173317218261035 0.14008598214320936 0.087158586238709312
leaf_weight=9.9057365013286454 34.124830385670066 10.745613014791159 232.65844443440437 11.094493549317123 17.742243459448218 218.05017318949103 16.612296311184764 4.4765940587967625 6.7449914477765551 12.028101114556192 41.365512771997601 5.2536359280347851 17.344826525542885 5.8779097488149992 11.540834107436238 16.434254377149045 66.1791229872033 162.12566717760637 9.4431230286136252 7.2224750546738496 8.012968364171682 3.4049286469817188 18.246790987439454 51.530246442183852 18.654190856032073 6.013494777493178 19.430827993899584 6.5729013746604323 10.077825955115253 17.894085209816694 34.3219781992957 7.1380019998177913 8.694182416424157 54.073346285149455 36.410872566513717 25.628915850073099 15.892069823108612 32.560833748430014 42.574245524592712 6.8929646285250694 15.509819434024392 13.740372333675621 13.476553331594916 34.306116729974747 13.215134429745376 13.203601764515042 43.870845491066575 53.531473456416279 15.970429506152866 71.375519147142768 26.440749162808061 24.159460429102182 6.3208587635308486 5.3087992444634438 185.88891880586743 60.387499401345849 6.7122267354279739 7.6252482384443283 7.4504367709159833 69.803799636662006 5.8297154139727354 257.97539855353534
leaf_count=104 45 372 90 86 40 268 332 60 117 82 170 4 332 103 159 298 124 364 150 150 24 68 14 180 34 85 58 93 194 397 96 78 82 85 128 387 80 20 707 9 76 20 267 65 35 138 50 239 39 87 50 180 49 5 127 61 7 56 114 205 3 858
internal_value=0.0678393 0.0584935 0.0888569 0.0764663 -0.0282281 0.0596446 0.0746893 0.055327 0.0641002 0.0678953 0.0708087 0.0202735 -0.0826141 0.050892 0.0519468 0.0703082 0.0433651 0.0779375 0.0491639 0.0618526 -0.0453453 0.0806561 0.0459249 0.0431484 0.0378371 0.0350871 0.0125435 -0.0498407 0.0285212 0.0547676 0.0162509 0.0574054 0.0487268 0.0219871 0.0725407 -0.0772778 -0.0119729 0.0795952 -0.0911031 0.00564142 -0.0198377 0.0381499 -0.0189614 0.0654077 0.0331273 -0.0276285 0.0903897 0.0621631 0.0832611 0.0686288 0.0393503 -0.0171263 0.0641857 -0.0332108 0.100836 0.104566 0.0674458 -0.00808282 0.102398 0.0828951 -0.0161227 0.0827805
internal_weight=2293.1 1587.29 705.81 473.151 28.8367 1576.54 579.852 361.801 345.189 338.444 333.967 63.964 22.5985 996.693 990.815 315.587 675.228 304.046 141.92 132.477 27.8522 11.4179 665.322 647.076 580.897 562.242 211.943 85.5488 29.5087 126.394 74.8639 56.9698 350.299 165.013 185.286 50.2152 24.5863 179.273 56.0401 13.4659 22.6478 63.6278 27.2169 114.798 60.7249 26.4187 104.625 60.7539 444.315 242.455 133.605 62.2299 38.0704 11.6297 201.859 108.85 48.4623 14.3375 115.645 83.084 13.2802 270.003
internal_count=9000 8078 922 832 126 7706 2223 1955 1623 1506 1446 506 336 5483 5380 1502 3878 1343 979 829 390 92 3774 3760 3636 3602 1888 1061 252 827 647 250 1714 872 842 549 162 757 809 102 154 415 287 323 238 173 439 389 706 540 371 284 104 54 166 169 108 63 342 322 117 940
is_linear=0
shrinkage=0.1


Tree=14
num_leaves=63
num_cat=0
split_feature=8 11 2 25 9 11 28 26 10 14 5 11 0 11 16 21 26 0 0 5 7 0 8 8 1 0 8 21 14 16 21 25 16 26 5 0 25 2 7 0 5 28 25 18 14 25 21 26 27 0 16 21 28 11 9 2 28 28 7 0 27 26
split_gain=42.2268 41.6944 57.8504 36.3873 26.6924 26.1976 28.9634 28.4312 23.7498 35.5478 25.7781 23.4633 27.2306 20.0449 19.7006 21.3854 30.6462 28.3386 19.2147 20.2972 18.9283 23.8415 17.9122 16.8445 15.1867 42.6191 14.6143 31.5214 14.2535 13.5398 20.5169 29.9128 17.9539 12.745 12.6143 36.3633 24.1108 11.9483 22.4154 23.1495 16.9907 39.4086 26.4096 25.7487 17.4374 16.5746 15.2329 47.943 16.245 27.72 14.929 13.5956 16.3187 12.9857 21.0943 13.2275 16.1051 11.8961 18.78 11.8477 10.631 29.0875
threshold=-0.050934907957453993 -0.078093139014722271 0.81675681312379633 1.3238601581477487 -0.11440762099878261 -0.20843257361056927 -0.62497284041583223 1.0000000180025095e-35 -0.11409312164716696 1.1832547297989848 -1.8685311147050909 -0.22901248433622931 -0.70482169954670548 0.16886578969319843 -0.69770892181899202 -0.17542335176628324 -0.96010861762047572 0.013642280164569252 -0.55330975407854843 0.60081327942465712 3.4171462075089774 -0.58083146191331758 0.45454880288316746 -0.091606011128538459 -1.9280723492593166 0.26347593633139393 0.33834565096578323 0.088205980881857049 1.1832547297989848 -0.571357415744431 -1.7571993476551249 0.34557879198780705 -0.51520119082240379 -0.99993207873689327 0.51608087374373446 -0.067594376507951762 -0.10540197964621185 0.28352129141466603 0.99258742572169401 4.9545379947418171 -1.5053922332154221 -0.51634554335571103 0.26810260814299192 1.0000000180025095e-35 -0.61331217698758755 0.81621769982125603 0.22002064720592721 0.1151248325227992 -1.5629413474843405 -0.56225719050267997 -0.38183015663258946 -1.4935700150069846 0.13674607154152027 -0.10553301998226901 -0.15423043323911304 -1.6546461437795978 1.9406334487010539 -0.27963760295888773 2.4473226947940643 -0.58693694988680123 -1.4159490818401128 -0.85059409955032728
decision_type=2 2 2 2 2 2 2 2 2 2 2 2 2 2 2 2 2 2 2 2 2 2 2 2 2 2 2 2 2 2 2 2 2 2 2 2 2 2 2 2 2 2 2 2 2 2 2 2 2 2 2 2 2 2 2 2 2 2 2 2 2 2
left_child=3 -2 13 4 8 7 28 33 9 11 -11 23 -13 22 15 16 -14 20 19 -12 21 59 -3 24 25 -1 -15 -28 -7 -16 31 -31 -32 -5 -26 36 -36 38 50 -40 -39 43 46 -42 -44 -46 51 48 -48 -50 -34 52 -43 55 -55 56 -52 58 -51 -17 61 -57
right_child=1 2 -4 5 -6 6 -8 -9 -10 10 18 12 14 26 29 17 -18 -19 -20 -21 -22 -23 -24 -25 34 -27 27 -29 -30 30 32 -33 37 -35 35 -37 -38 40 39 -41 41 42 44 -45 45 -47 47 -49 49 57 53 -53 -54 54 -56 60 -58 -59 -60 -61 -62 -63
